{
    "nh": 50,
    "ns": 2,
    "na": 24,
    "net": {
        "W1": {
            "n": 50,
            "d": 2,
            "w": {
                "0": -0.01771174087764644,
                "1": -0.21531471800059857,
                "2": -2.206999578582291,
                "3": -6.031785101443528,
                "4": -0.02690597681092517,
                "5": 0.01855559842479212,
                "6": 0.00730664200841857,
                "7": 0.007300879572429547,
                "8": -0.02151417046901713,
                "9": 0.02842426924002774,
                "10": 0.05081165384491755,
                "11": -0.07664971008812749,
                "12": -0.024817492183563918,
                "13": -0.11828531888355175,
                "14": 0.02137574137102363,
                "15": -0.18622838769429048,
                "16": -0.030289953507239332,
                "17": 0.02273940127334294,
                "18": 0.005416000913807164,
                "19": 0.029015045270335202,
                "20": -0.00778562501497802,
                "21": 0.1275215992436857,
                "22": -0.00010404336081387978,
                "23": 0.05449290771414836,
                "24": 0.00028902048394010177,
                "25": -0.1262108670012966,
                "26": 0.010466860784760286,
                "27": 0.1245583402389361,
                "28": 0.001637934167195977,
                "29": -0.10190277137035553,
                "30": -0.01939948247194577,
                "31": 0.029028730708795605,
                "32": -0.01096530662093422,
                "33": 0.25497626951990127,
                "34": 0.024294603872884117,
                "35": -0.03137082816212706,
                "36": 0.05318175160347057,
                "37": -0.09942074041402339,
                "38": 0.00865831646914629,
                "39": 0.15935933158266638,
                "40": 0.026007490275733566,
                "41": -0.42982484453784736,
                "42": -0.013918667839189961,
                "43": -0.12606300550308733,
                "44": 0.0014036855919949333,
                "45": 0.030196842641884887,
                "46": -0.023694337452350427,
                "47": -0.0005591660008238801,
                "48": 0.013530128224737606,
                "49": 0.047925643797895566,
                "50": -0.014276554539578717,
                "51": 2.400744027577033,
                "52": 0.04536502321095934,
                "53": 12.862376358744562,
                "54": 0.07374409517123563,
                "55": -0.8236079324224842,
                "56": 0.013582494570854167,
                "57": 0.18377630334255757,
                "58": -0.0019746690607836603,
                "59": 0.04166810370893198,
                "60": -0.01180157170655097,
                "61": -0.06105584293172091,
                "62": -0.012361927590159855,
                "63": 0.14786223270563803,
                "64": -0.14940975742240645,
                "65": 0.3105322406547311,
                "66": -0.0486638396537933,
                "67": 0.07225830426432994,
                "68": 0.05354118735227178,
                "69": 0.356730797614301,
                "70": -0.017329086354175516,
                "71": -0.08622805674357174,
                "72": 0.048744895133355705,
                "73": -0.09402971512012678,
                "74": 0.02101447837322043,
                "75": -0.020273660282274616,
                "76": 0.12297097301897526,
                "77": -0.36915882980214704,
                "78": -0.011084282287070415,
                "79": -0.1752363280551736,
                "80": 0.022153756898572567,
                "81": 0.004873524233098147,
                "82": 0.001378512591839444,
                "83": -0.18425639445325645,
                "84": 0.01318992786311232,
                "85": -0.09146772224240776,
                "86": 0.018866103854692187,
                "87": 0.0019654377945638895,
                "88": -0.9165213580150536,
                "89": 5.754651545866833,
                "90": 0.031390235297216906,
                "91": -0.06280157068110728,
                "92": -0.053316536365479957,
                "93": 0.7614412782311026,
                "94": 0.019963589428499146,
                "95": 0.32059284254329107,
                "96": -0.015519448175565154,
                "97": 0.04340841535831219,
                "98": 0.022854770708356283,
                "99": 0.006859005772569534
            }
        },
        "b1": {
            "n": 50,
            "d": 1,
            "w": {
                "0": -0.008200064393483893,
                "1": -2.17996986534573,
                "2": -0.02219794496144818,
                "3": -0.0165372313753078,
                "4": -0.01688351027939103,
                "5": 0.015203192557353461,
                "6": -0.015311695527653036,
                "7": 0.0071268425291593955,
                "8": 0.01209000697296516,
                "9": 0.012913817547533379,
                "10": 0.005685279722207,
                "11": 0.013731144330337269,
                "12": 0.0032895582496894698,
                "13": 0.002105969006395517,
                "14": 0.004392520689271873,
                "15": -0.016825896499746733,
                "16": 0.005383012574512956,
                "17": 0.017860775964346105,
                "18": 0.009846597168252563,
                "19": 0.01212281638233004,
                "20": -0.0037590282697110284,
                "21": -0.012900128686252314,
                "22": 0.013238708090703122,
                "23": -0.011532111151005097,
                "24": 0.019842279488880805,
                "25": 0.18964021018575314,
                "26": -0.7594892509022293,
                "27": -0.026359882458085227,
                "28": 0.01097837048362688,
                "29": -0.012757455484556044,
                "30": -0.0028626205394199434,
                "31": 0.00869763526151604,
                "32": 0.009842262468745915,
                "33": -0.010495015826838915,
                "34": 0.01698886291751113,
                "35": -0.013777079148632748,
                "36": 0.008384877241762779,
                "37": 0.005521980816294487,
                "38": 0.004333756891262816,
                "39": -0.010877182385630091,
                "40": -0.01820172267478556,
                "41": -0.0066074461953398375,
                "42": -0.00678766345500841,
                "43": 0.005292152760024775,
                "44": 0.40976058431914886,
                "45": 0.015796460890112787,
                "46": 0.02015528380951084,
                "47": 0.011288139026771301,
                "48": -0.022558444638800582,
                "49": 0.009751159232820454
            }
        },
        "W2": {
            "n": 24,
            "d": 50,
            "w": {
                "0": 0.00413251289744336,
                "1": 0.013302134611128703,
                "2": 0.09787838417156842,
                "3": 0.10452475306049429,
                "4": 0.10646851616623741,
                "5": -0.08093358815550863,
                "6": 0.028698935026252852,
                "7": -0.053866585538162454,
                "8": -0.0888380427362684,
                "9": -0.08640400458097044,
                "10": -0.03768945748898295,
                "11": -0.0802567199428794,
                "12": -0.04542028620811582,
                "13": -0.008209562955755232,
                "14": -0.045926749393512344,
                "15": 0.11313575671846686,
                "16": -0.011134915659433465,
                "17": -0.10439730170048254,
                "18": -0.04575500919338174,
                "19": -0.02313776980528906,
                "20": -0.01991397501939417,
                "21": 0.03700216527349562,
                "22": -0.0948275238018942,
                "23": 0.08343495462153101,
                "24": -0.0643425016635819,
                "25": -0.1958984483228237,
                "26": -1.0622364195788114,
                "27": 0.020718435886313204,
                "28": -0.01161977689700651,
                "29": 0.08840495015782844,
                "30": 0.01132666651366753,
                "31": -0.045757357721207786,
                "32": -0.06808194471184094,
                "33": 0.048187510132421126,
                "34": 0.032352976070867755,
                "35": 0.057665605642520094,
                "36": -0.046341700188351334,
                "37": -0.03019007078643427,
                "38": -0.013926746720946855,
                "39": 0.01326664636507085,
                "40": 0.09794633370934577,
                "41": 0.027623974653585216,
                "42": 0.0444632879222669,
                "43": -0.035883480291339975,
                "44": -0.1277451191732258,
                "45": -0.08960560141013231,
                "46": 0.004420069005879906,
                "47": 0.03008796985437146,
                "48": 0.10576918244999503,
                "49": -0.05723359248324933,
                "50": 0.0006119651310150377,
                "51": 0.028501033762432057,
                "52": 0.15764993217773896,
                "53": 0.15624942753912602,
                "54": 0.12433950273658413,
                "55": -0.1351708841419878,
                "56": 0.10443840170505166,
                "57": -0.09418570548315733,
                "58": -0.14293723502511327,
                "59": -0.09123865062994975,
                "60": -0.038960739071029406,
                "61": -0.08553753743031701,
                "62": -0.03727449685813625,
                "63": 0.0032663404668928355,
                "64": -0.046789161215651756,
                "65": 0.11838833783967737,
                "66": 0.008520343843265735,
                "67": -0.14602026318671724,
                "68": -0.11247108426747801,
                "69": -0.06959258708524992,
                "70": -0.06508461292879074,
                "71": 0.07681219442917334,
                "72": -0.08808065390195564,
                "73": 0.07115086781332346,
                "74": -0.1646378748403386,
                "75": -0.18225767300696472,
                "76": -1.024989922570376,
                "77": -0.06250826096664173,
                "78": -0.049573019978705286,
                "79": 0.14492232914125425,
                "80": 0.021432926050170508,
                "81": -0.047966600215854624,
                "82": -0.1269481456506538,
                "83": 0.11589753208467912,
                "84": -0.0035950205653984173,
                "85": 0.07111590257750834,
                "86": -0.08871273188018863,
                "87": -0.06912851632290827,
                "88": -0.054444594209011224,
                "89": 0.059163506847360464,
                "90": 0.185939080254742,
                "91": 0.011642483176353562,
                "92": 0.06029052918396873,
                "93": -0.048852818648134615,
                "94": -0.22917689774524438,
                "95": -0.15491869785737558,
                "96": 0.062479132858135174,
                "97": -0.02656450519958167,
                "98": 0.19905946472662964,
                "99": -0.08660222163201377,
                "100": 0.04680468746135482,
                "101": 0.1214692489999866,
                "102": 0.1252542051772616,
                "103": 0.08145526110421648,
                "104": 0.08849414163628576,
                "105": -0.10125736613187551,
                "106": 0.09384356572402405,
                "107": -0.053547204779084374,
                "108": -0.051784781574369526,
                "109": -0.06201576212095025,
                "110": -0.021910624370869256,
                "111": -0.06566747337146078,
                "112": -0.015395965924817514,
                "113": -0.010771631182604742,
                "114": -0.02330160036186725,
                "115": 0.08326831142010602,
                "116": -0.01436463616718015,
                "117": -0.09776523969050767,
                "118": -0.08161315787507778,
                "119": -0.0730049031057072,
                "120": -0.011266095034274469,
                "121": 0.07374472753484394,
                "122": -0.0610249065476951,
                "123": 0.06534586216456816,
                "124": -0.12491651456609719,
                "125": 0.02507052373086279,
                "126": -0.9531293361967665,
                "127": -0.026744836604773694,
                "128": -0.07087681833061159,
                "129": 0.0696125542896567,
                "130": 0.018922869919663163,
                "131": -0.02852562554474072,
                "132": -0.03437068131665503,
                "133": 0.08091249585352428,
                "134": -0.07654883690257991,
                "135": 0.07474279838742283,
                "136": -0.06596240714882558,
                "137": -0.0431723533921592,
                "138": -0.05421204814053156,
                "139": 0.06235916261305834,
                "140": 0.09779192879509332,
                "141": 0.025452962413524672,
                "142": 0.0300064741849216,
                "143": -0.03770999010992971,
                "144": -0.3806667492079087,
                "145": -0.0995280796536154,
                "146": 0.01759056931447402,
                "147": -0.07392118316550586,
                "148": 0.12982831820241184,
                "149": -0.06220142845294119,
                "150": -0.03485319001717183,
                "151": 0.6996706216072957,
                "152": -0.06562475212933547,
                "153": -0.04160792345939262,
                "154": -0.05006023161685004,
                "155": 0.051984968777204106,
                "156": -0.052705652521431286,
                "157": 0.018846681065111767,
                "158": 0.026845766327703403,
                "159": 0.03750955659191644,
                "160": 0.018498771015373484,
                "161": 0.04026076059527629,
                "162": 0.0052773478445313415,
                "163": 0.013017551060420626,
                "164": 0.008271755163858738,
                "165": -0.04837745828330286,
                "166": 0.019874936245333624,
                "167": 0.05224277852174054,
                "168": 0.040547566509703974,
                "169": 0.04341725351484252,
                "170": -0.01363564436609616,
                "171": -0.04456240004946832,
                "172": 0.03565559215272174,
                "173": -0.038686903273442146,
                "174": 0.06235097515954457,
                "175": -0.006951767097520159,
                "176": -1.0062390794924936,
                "177": -0.011061188928546673,
                "178": 0.0414477016450459,
                "179": -0.03469498556548944,
                "180": -0.01314227510646188,
                "181": 0.02438467369372374,
                "182": 0.003702569454226654,
                "183": -0.03975130711019505,
                "184": 0.053523670201308236,
                "185": -0.04491712893718333,
                "186": 0.03284374578371759,
                "187": 0.021499062406020366,
                "188": 0.031472459136958626,
                "189": -0.0390893605187024,
                "190": -0.04817764432152935,
                "191": -0.023336216539354814,
                "192": -0.018310086712551646,
                "193": 0.02158414936072957,
                "194": -0.4437052118510958,
                "195": 0.048617542663152206,
                "196": 0.014302137691924089,
                "197": 0.04513226552705987,
                "198": -0.06529602286600797,
                "199": 0.033061746939658465,
                "200": 0.05876541405729902,
                "201": 1.1168606612438152,
                "202": 0.11598995873513998,
                "203": 0.0855815545782942,
                "204": 0.09845133224400365,
                "205": -0.11769529847803685,
                "206": 0.10247140552773767,
                "207": -0.045460957884873365,
                "208": -0.07425273000830733,
                "209": -0.07684135327340279,
                "210": -0.04176955094062553,
                "211": -0.07121241394167674,
                "212": -0.015216242859836512,
                "213": -0.029419671739759772,
                "214": -0.015607072616202273,
                "215": 0.08983326707822864,
                "216": -0.025481487974240654,
                "217": -0.10276636038847395,
                "218": -0.09881125637107334,
                "219": -0.07809311005108613,
                "220": 0.00786632400087823,
                "221": 0.0835607281294147,
                "222": -0.06465687370991169,
                "223": 0.075114298446963,
                "224": -0.1231388048893507,
                "225": 0.14004382473254975,
                "226": -0.8895441808141424,
                "227": -0.013766163793707997,
                "228": -0.07834324934093898,
                "229": 0.0848679188180861,
                "230": 0.023727783341972612,
                "231": -0.04455391895364547,
                "232": -0.012744680731509705,
                "233": 0.08859519093027214,
                "234": -0.06366231255727826,
                "235": 0.0742070031478,
                "236": -0.07184930668758142,
                "237": -0.05751677210623242,
                "238": -0.07620528606580766,
                "239": 0.07625513417289737,
                "240": 0.10674439407134809,
                "241": 0.03977783355218101,
                "242": 0.044914239707006975,
                "243": -0.0478048640261706,
                "244": -0.48859034002828217,
                "245": -0.10498704712392683,
                "246": 0.0044225697365853365,
                "247": -0.07004563188307193,
                "248": 0.12249534832985018,
                "249": -0.07353465570200415,
                "250": 0.06211404863456458,
                "251": 0.8839295908855493,
                "252": 0.0952835201608818,
                "253": 0.052946114483581996,
                "254": 0.085914532323733,
                "255": -0.10671136323469611,
                "256": 0.08058904952096735,
                "257": -0.03324982953202825,
                "258": -0.02725331177360108,
                "259": -0.0669373767166267,
                "260": -0.029530876474547735,
                "261": -0.05319722607038176,
                "262": -0.007899283978904945,
                "263": -0.03200813861707858,
                "264": -0.011256706588517592,
                "265": 0.08646005386475601,
                "266": -0.032687147793183165,
                "267": -0.08333784921980812,
                "268": -0.09231228318697388,
                "269": -0.06482822025196215,
                "270": 0.01787025986625035,
                "271": 0.06998415986645545,
                "272": -0.057270524957941576,
                "273": 0.07787254250730022,
                "274": -0.08009522813508765,
                "275": 0.05829581408255363,
                "276": -0.9717689713653664,
                "277": -0.02221280538643166,
                "278": -0.06378945289081471,
                "279": 0.04813136551211957,
                "280": 0.02655624384284177,
                "281": -0.03768439472490829,
                "282": 0.059282893909933514,
                "283": 0.0844842200870084,
                "284": -0.09025099155814971,
                "285": 0.07126674023379535,
                "286": -0.0730367911422301,
                "287": -0.041943751124291155,
                "288": -0.11607783234537962,
                "289": 0.059787847720480285,
                "290": 0.039870393277449886,
                "291": 0.043601712630817115,
                "292": 0.023880519197339307,
                "293": -0.04473772976427781,
                "294": -0.355882226320109,
                "295": -0.08574165495228148,
                "296": 0.007099557981715421,
                "297": -0.07286777997044333,
                "298": 0.08691909841616506,
                "299": -0.06294930835194576,
                "300": 0.05772077612538063,
                "301": 0.5410631474881853,
                "302": 0.10614379043481503,
                "303": 0.08289000299304593,
                "304": 0.09570667993914883,
                "305": -0.12258742130956192,
                "306": 0.09412796737654412,
                "307": -0.03655501331621926,
                "308": -0.06858695873192941,
                "309": -0.079684943525583,
                "310": -0.04924392027505689,
                "311": -0.06964338214341825,
                "312": -0.008713160945835997,
                "313": -0.03921186744391435,
                "314": -0.009282658202265823,
                "315": 0.09338945603837871,
                "316": -0.025915606215052876,
                "317": -0.10312679131691786,
                "318": -0.11596124775178471,
                "319": -0.06389246499032306,
                "320": 0.009262720511001687,
                "321": 0.0699264993838502,
                "322": -0.07022930318674997,
                "323": 0.08694400832477091,
                "324": -0.10356867901266613,
                "325": 0.03893746189836357,
                "326": -1.039593373566579,
                "327": -0.03798296898825855,
                "328": -0.06448659486053036,
                "329": 0.08392417308119592,
                "330": 0.03799511476427408,
                "331": -0.04305136983048709,
                "332": -0.00017715856141058546,
                "333": 0.10691927349196796,
                "334": -0.04344614091528578,
                "335": 0.06646073726032727,
                "336": -0.0845480726401252,
                "337": -0.05871169046401465,
                "338": -0.08884940531820408,
                "339": 0.06185562312217477,
                "340": 0.08956644479123396,
                "341": 0.046267168475195006,
                "342": 0.053838056482707675,
                "343": -0.06038694966544196,
                "344": -0.31911681146199483,
                "345": -0.1080046093986637,
                "346": 0.02256510645365327,
                "347": -0.05810210455229106,
                "348": 0.11709666229698724,
                "349": -0.08296939289274764,
                "350": 0.01957228711702147,
                "351": 0.27354073518672894,
                "352": 0.04897566118009827,
                "353": 0.03544184428105428,
                "354": 0.051327450169386196,
                "355": -0.036564452014856,
                "356": 0.023512536800902293,
                "357": -0.013565452631002322,
                "358": -0.015748926864766515,
                "359": -0.036834609143327535,
                "360": -0.01555164462560615,
                "361": -0.03886295923709154,
                "362": -0.018147525824251446,
                "363": -0.006033663939772494,
                "364": -0.009059606865522178,
                "365": 0.05059878710113672,
                "366": -0.013837698032782208,
                "367": -0.04635760329680728,
                "368": -0.017474052530986765,
                "369": -0.019052574649862274,
                "370": 0.003949555386411457,
                "371": 0.025799703326083574,
                "372": -0.035416860344477434,
                "373": 0.03945663670835507,
                "374": -0.026328211869405305,
                "375": -0.08345449856868914,
                "376": -1.1473367160617023,
                "377": -0.00515004347420488,
                "378": -0.013838078768973592,
                "379": 0.01805844274661366,
                "380": 0.006777530112107353,
                "381": -0.020152675268346857,
                "382": 0.03051518581882544,
                "383": 0.016470997482404038,
                "384": -0.012978335523301757,
                "385": 0.033048114848560683,
                "386": -0.022087987993094752,
                "387": -0.009246857576325705,
                "388": -0.033426735627336376,
                "389": 0.017750869879945445,
                "390": 0.024774656868425803,
                "391": 0.02182527378368924,
                "392": 0.01426654961281987,
                "393": -0.011669252397164495,
                "394": -0.11054873903759692,
                "395": -0.030237839055870214,
                "396": 0.008301482193763731,
                "397": 0.0033049755817974895,
                "398": 0.03565987429330499,
                "399": -0.020019288878106115,
                "400": -0.003988696826269267,
                "401": -0.006936469646335519,
                "402": 0.08676716509633932,
                "403": 0.055878551920243144,
                "404": 0.06040352138671158,
                "405": -0.06354084694410814,
                "406": 0.05289802473544355,
                "407": -0.05881852067304204,
                "408": -0.044505773005146944,
                "409": -0.03822169375738962,
                "410": 0.00962884180652324,
                "411": -0.03718975975455683,
                "412": -0.040202484211930005,
                "413": 0.0206833157192889,
                "414": -0.032725631600922615,
                "415": 0.053079499140143864,
                "416": 0.035997645093032715,
                "417": -0.060249482102230925,
                "418": -0.06566106453194366,
                "419": -0.034037519876766606,
                "420": -0.05193479438356546,
                "421": 0.037034519476561945,
                "422": -0.026932462630762988,
                "423": 0.04210258077971909,
                "424": -0.09492939282051827,
                "425": -0.2906750296994011,
                "426": -1.0530771339122962,
                "427": -0.020037193985718033,
                "428": -0.0188858339242408,
                "429": 0.05380047320054967,
                "430": -0.0020150075924357078,
                "431": 0.006495385137275896,
                "432": -0.0075945761879836,
                "433": 0.05602150503336372,
                "434": 0.015204066343834793,
                "435": 0.03528236621365721,
                "436": -0.049560191409254176,
                "437": -0.03170728051500912,
                "438": -0.0224069729293868,
                "439": 0.016754033851616366,
                "440": 0.085415576886691,
                "441": -0.021640937793710385,
                "442": 0.0038617633087093973,
                "443": -0.02469705379680136,
                "444": -0.15193608972725847,
                "445": -0.06280673393976764,
                "446": 0.024906902746832143,
                "447": -0.00679123165655718,
                "448": 0.09992236768710043,
                "449": -0.03438506067412107,
                "450": -0.0011287426943488988,
                "451": 0.25827342368928063,
                "452": 0.20221072491062547,
                "453": 0.1473607256298132,
                "454": 0.15174628758190334,
                "455": -0.12074598955961667,
                "456": 0.06738779219907172,
                "457": -0.10341206118724604,
                "458": -0.11260485498735712,
                "459": -0.10618563951910603,
                "460": -0.010730425201639563,
                "461": -0.11222396062113338,
                "462": -0.07790396754078505,
                "463": 0.024763856302413872,
                "464": -0.07881789104947362,
                "465": 0.15763958717156537,
                "466": 0.010086047757183953,
                "467": -0.14953099723875343,
                "468": -0.07599244144398028,
                "469": -0.051821894368104804,
                "470": -0.058143665032094366,
                "471": 0.06613594132814885,
                "472": -0.10826060977719376,
                "473": 0.09292373563212471,
                "474": -0.15082795745788294,
                "475": -0.17779504276723537,
                "476": -0.9180865288532996,
                "477": -0.03582846522803262,
                "478": -0.0234813790042563,
                "479": 0.11925956316506114,
                "480": -0.002132354445701265,
                "481": -0.04713271846476608,
                "482": -0.16901394615911736,
                "483": 0.07335375024403114,
                "484": -0.0005023025150647425,
                "485": 0.08966784830182925,
                "486": -0.0645426903765259,
                "487": -0.0345733143668605,
                "488": -0.03880829234275228,
                "489": 0.026472564487046105,
                "490": 0.18121567260336274,
                "491": 0.007161167652919521,
                "492": 0.036636269434393444,
                "493": -0.030841689640052,
                "494": -0.31747467860387774,
                "495": -0.1308185701133748,
                "496": 0.061717904409605145,
                "497": 0.009774901621653691,
                "498": 0.2153454080982513,
                "499": -0.06166550357924153,
                "500": 0.011060011013897033,
                "501": -0.15447968782841467,
                "502": 0.07800703704749248,
                "503": 0.04925055929685391,
                "504": 0.053718249592410686,
                "505": -0.06653186837909959,
                "506": 0.057593879767441125,
                "507": -0.04727211770318205,
                "508": -0.04055531863416543,
                "509": -0.03462850404148629,
                "510": -0.001772123802005964,
                "511": -0.03545056242281684,
                "512": -0.024595650970409732,
                "513": 0.0062794980549113555,
                "514": -0.021748393500887066,
                "515": 0.04609642218403417,
                "516": 0.01694009751235608,
                "517": -0.05576284570369717,
                "518": -0.06832985013282791,
                "519": -0.04082345084981059,
                "520": -0.030059661770789645,
                "521": 0.04108333770220452,
                "522": -0.025225244550530632,
                "523": 0.03850158386436807,
                "524": -0.08881314311206548,
                "525": -0.08391874622929539,
                "526": -0.9688791399236968,
                "527": -0.01901954444374333,
                "528": -0.032110515140061684,
                "529": 0.05146299769781278,
                "530": 0.006403354258900815,
                "531": -0.0030935544125266193,
                "532": -0.02318375427664491,
                "533": 0.0602118233580741,
                "534": -0.008806837087387024,
                "535": 0.036821798334361736,
                "536": -0.04966164834265453,
                "537": -0.03469232090918463,
                "538": -0.026060445502697833,
                "539": 0.02842625749849192,
                "540": 0.07672407133788692,
                "541": -0.006637741135776266,
                "542": 0.010989233744850968,
                "543": -0.027893986042607143,
                "544": -0.41276988313116175,
                "545": -0.0625033038820637,
                "546": 0.018065581221489168,
                "547": -0.030551469275296218,
                "548": 0.09043982674313701,
                "549": -0.03808039891524645,
                "550": 0.035531347306180926,
                "551": 0.8724984907012805,
                "552": 0.10580824661838174,
                "553": 0.06771616326938013,
                "554": 0.0683584906680036,
                "555": -0.05410687333636691,
                "556": 0.06484758402130977,
                "557": -0.029821935847563392,
                "558": -0.04812010496087815,
                "559": -0.04901590384980168,
                "560": -0.018863119321333856,
                "561": -0.06833182381894651,
                "562": -0.016525868935674197,
                "563": -0.00021835243922846965,
                "564": -0.02205729884777107,
                "565": 0.06834158671587082,
                "566": -0.027745299016115346,
                "567": -0.06923039474877223,
                "568": -0.030185373703876237,
                "569": -0.06222657587845072,
                "570": 0.005967554776334579,
                "571": 0.06166079069651019,
                "572": -0.0518945258460866,
                "573": 0.03866483484592354,
                "574": -0.09529014064569997,
                "575": 0.27452713629316355,
                "576": -0.9706824218658613,
                "577": -0.030060036404987063,
                "578": -0.050305504846280505,
                "579": 0.05001655420196789,
                "580": 0.0056079478034662495,
                "581": -0.040733606560633774,
                "582": -0.08010608136551664,
                "583": 0.032664324484939694,
                "584": -0.07056691516338225,
                "585": 0.06577185594378847,
                "586": -0.02350473554943619,
                "587": -0.015613495750305706,
                "588": -0.01987255462693964,
                "589": 0.048177263541812475,
                "590": 0.09508860453806024,
                "591": 0.026055131831665447,
                "592": 0.022046669591350807,
                "593": -0.015170021949493772,
                "594": -0.5502796111897085,
                "595": -0.058023136130417464,
                "596": 0.02764477259637795,
                "597": -0.05604834179021449,
                "598": 0.1077771085971691,
                "599": -0.02955745035118531,
                "600": 0.08747278657561257,
                "601": 0.34107809072315387,
                "602": 0.1838192446346347,
                "603": 0.12230906448367676,
                "604": 0.1477544227671097,
                "605": -0.14356752245006962,
                "606": 0.1334745926338314,
                "607": -0.058234954657496785,
                "608": -0.07258359889352764,
                "609": -0.10634320953048015,
                "610": -0.05303371907155151,
                "611": -0.11459704429162576,
                "612": -0.009350178749615344,
                "613": -0.03741562670290754,
                "614": -0.023912767224953405,
                "615": 0.14367701445074857,
                "616": -0.049972011229679404,
                "617": -0.16060754938215624,
                "618": -0.0896707177010294,
                "619": -0.10261073293747486,
                "620": 0.004355221486732733,
                "621": 0.1100575993606125,
                "622": -0.11577925037158292,
                "623": 0.10906040736337284,
                "624": -0.14657059468701888,
                "625": 0.1694079096277978,
                "626": -0.8339725463866879,
                "627": -0.06360537631681618,
                "628": -0.10338992420709871,
                "629": 0.09832129108525604,
                "630": 0.03143755760569947,
                "631": -0.06634621623816589,
                "632": 0.0358119296920545,
                "633": 0.09739343850980207,
                "634": -0.16078486639104814,
                "635": 0.11777649568026431,
                "636": -0.08049787447039249,
                "637": -0.04214447086995594,
                "638": -0.14223920611835836,
                "639": 0.09966840819219261,
                "640": 0.11317298893101657,
                "641": 0.06146431744323459,
                "642": 0.05005724903266391,
                "643": -0.05206935676723911,
                "644": -0.5697085331462728,
                "645": -0.1414802781184019,
                "646": 0.0451405364863507,
                "647": -0.098289045891993,
                "648": 0.1800855221570243,
                "649": -0.08737821670925543,
                "650": -0.0027645623165377872,
                "651": 1.0432329270025398,
                "652": -0.06124440352712618,
                "653": -0.06437096192991533,
                "654": -0.04970023286925628,
                "655": 0.03065744218040829,
                "656": -0.02901340241289666,
                "657": 0.02637475554206047,
                "658": 0.06454441994728481,
                "659": 0.042590977733725395,
                "660": 0.019096138981131078,
                "661": 0.04602213156669044,
                "662": 0.022301304888299376,
                "663": -0.00504674302921462,
                "664": 0.022507320825628493,
                "665": -0.05084786071272409,
                "666": 0.007803621109189995,
                "667": 0.05092529370750628,
                "668": 0.015633638165625543,
                "669": 0.027329104478517212,
                "670": 0.006711843552517893,
                "671": -0.029344740489900517,
                "672": 0.043820000747358374,
                "673": -0.029794481869522937,
                "674": 0.060701919148301094,
                "675": -0.06862817257039715,
                "676": -0.8645778450768711,
                "677": -0.0026273445415236074,
                "678": 0.017049798730393223,
                "679": -0.05118307146347114,
                "680": -0.00017169926487798116,
                "681": 0.028207830261513966,
                "682": 0.11788964243689909,
                "683": -0.015892155820100156,
                "684": -0.018471874127557093,
                "685": -0.031359182283576766,
                "686": 0.009989697301240786,
                "687": 0.012853747375695225,
                "688": -0.03375038096363785,
                "689": -0.018007935556017055,
                "690": -0.08418899178718704,
                "691": -0.011932621620165318,
                "692": -0.028071309004486643,
                "693": 0.011128915579829956,
                "694": -0.364756533766866,
                "695": 0.04333940433196448,
                "696": -0.00802282598129322,
                "697": 0.0010879635685042128,
                "698": -0.07446776020050785,
                "699": 0.0228698843078748,
                "700": 0.013738742824282021,
                "701": 0.12784064411407045,
                "702": 0.0034667732665449318,
                "703": -0.021161185571086438,
                "704": 0.0021990821691315215,
                "705": -0.026640445143183745,
                "706": 0.013219727745933585,
                "707": -0.004665151703146051,
                "708": 0.035175157731623496,
                "709": 0.006349687952075936,
                "710": 0.008646171372764463,
                "711": 0.010656057666405205,
                "712": 0.007002957669011279,
                "713": -0.009304303572484521,
                "714": 0.0065682290136301925,
                "715": 0.00003185090061601791,
                "716": 0.009108084285102422,
                "717": -0.0035054119015964238,
                "718": -0.030543252642231938,
                "719": -0.0024666877132104117,
                "720": -0.006653091871180275,
                "721": 0.00466074675133757,
                "722": 0.009536230508626979,
                "723": 0.010005278940923278,
                "724": 0.002328075922131002,
                "725": -0.2682225320369013,
                "726": -1.0888257530580978,
                "727": -0.0019369001884871101,
                "728": -0.008361940862923623,
                "729": -0.010743930276509599,
                "730": 0.007461515759633799,
                "731": 0.014285883204792502,
                "732": 0.13102072042297883,
                "733": 0.02747519459240905,
                "734": -0.039272606397498216,
                "735": 0.005660785392673564,
                "736": -0.028129252585032523,
                "737": -0.010753044055637616,
                "738": -0.08207948428205604,
                "739": 0.006601901607491311,
                "740": -0.03460307216339185,
                "741": -0.003865992762048445,
                "742": -0.014617094414575694,
                "743": -0.010053645382570637,
                "744": 0.23695002858125042,
                "745": -0.009653610810946208,
                "746": -0.006048753523531949,
                "747": -0.01615344831968487,
                "748": -0.008029199114608641,
                "749": -0.010669760528358602,
                "750": 0.003476258584840743,
                "751": 0.03163422221166985,
                "752": -0.022970580319564848,
                "753": -0.036583220796617,
                "754": -0.018612930045796706,
                "755": -0.0031897932465573707,
                "756": -0.00771034162239561,
                "757": 0.008790369180086688,
                "758": 0.04700770309793306,
                "759": 0.021037401735472704,
                "760": 0.011225474141460986,
                "761": 0.02383989556324462,
                "762": 0.015466716699519515,
                "763": -0.009030166663672245,
                "764": 0.013549994615169349,
                "765": -0.019032365954009863,
                "766": 0.006889683704423324,
                "767": 0.01769978101333984,
                "768": -0.0098681360531425,
                "769": 0.014181848592519444,
                "770": -0.0010947843407118968,
                "771": -0.01274539301151896,
                "772": 0.02128029877317442,
                "773": -0.007984610944196942,
                "774": 0.03093010985078437,
                "775": -0.09788440144351009,
                "776": -1.150205158221619,
                "777": -0.006690587177299529,
                "778": 0.005207078148734811,
                "779": -0.02590448556759635,
                "780": 0.006071430752639677,
                "781": 0.017741206843356533,
                "782": 0.12010742735944294,
                "783": 0.010360607759113592,
                "784": -0.023608396152103958,
                "785": -0.010852504891323915,
                "786": -0.0125993557098463,
                "787": -0.0015667789495587962,
                "788": -0.05860605812883781,
                "789": -0.00640945591555387,
                "790": -0.05558659443512828,
                "791": -0.005287315570715043,
                "792": -0.018593993407119352,
                "793": -0.0015195572514964746,
                "794": -0.08641993019273744,
                "795": 0.011033866144213304,
                "796": -0.0017155650872164537,
                "797": -0.0027705329485214346,
                "798": -0.03450528431147747,
                "799": 0.002127080374628246,
                "800": 0.03143369963970309,
                "801": 0.006744804634574347,
                "802": 0.1600309995176452,
                "803": 0.14757737223371503,
                "804": 0.12003477754847533,
                "805": -0.09937864499502243,
                "806": 0.10519726021205261,
                "807": -0.08618656486677578,
                "808": -0.1295571184015776,
                "809": -0.09793132355749011,
                "810": -0.040131065959398166,
                "811": -0.10875531847454911,
                "812": -0.0515033135783608,
                "813": 0.013293580521203963,
                "814": -0.05368675180057655,
                "815": 0.1323545629305353,
                "816": -0.0004107087685695748,
                "817": -0.14114714462852782,
                "818": -0.08325602705415786,
                "819": -0.08322369218961924,
                "820": -0.05516020635958833,
                "821": 0.09201128312823362,
                "822": -0.09710556579696074,
                "823": 0.07916205543817832,
                "824": -0.17979467522958198,
                "825": -0.18532117013551228,
                "826": -1.0651462734935964,
                "827": -0.05402666020795109,
                "828": -0.06451522123385088,
                "829": 0.1234512557314915,
                "830": -0.003023159502666182,
                "831": -0.04223423276833979,
                "832": -0.12659413274944495,
                "833": 0.06893642393713556,
                "834": -0.031205694188796474,
                "835": 0.08649079016491944,
                "836": -0.06319357587301778,
                "837": -0.05231264214685041,
                "838": -0.040107428432000394,
                "839": 0.051077329212478234,
                "840": 0.205573305120533,
                "841": 0.021878950068519087,
                "842": 0.04861434705103366,
                "843": -0.036073137420365366,
                "844": -0.22612747288914373,
                "845": -0.1267496974626069,
                "846": 0.06676998153513794,
                "847": -0.04479493445196499,
                "848": 0.1932845577146399,
                "849": -0.06619148308728308,
                "850": -0.0199887720217339,
                "851": 0.054129256454147595,
                "852": -0.04588731283691289,
                "853": -0.03803439993214061,
                "854": -0.03549752913457481,
                "855": 0.027646913377860547,
                "856": -0.03364562125414799,
                "857": 0.011721164209555475,
                "858": 0.0342388837752358,
                "859": 0.030070093820094138,
                "860": 0.016913805011541157,
                "861": 0.033253939326434105,
                "862": 0.007134769707799779,
                "863": 0.0058706289156969,
                "864": 0.00843029012827698,
                "865": -0.03480235219519138,
                "866": 0.016590401041584765,
                "867": 0.03597823754735101,
                "868": 0.018122239140107188,
                "869": 0.03138453398705095,
                "870": -0.011176861952267726,
                "871": -0.03098736989584435,
                "872": 0.029283552655282114,
                "873": -0.025263632879616145,
                "874": 0.046995767670051994,
                "875": -0.1577327951930178,
                "876": -1.0576849171383538,
                "877": 0.0008819690331896884,
                "878": 0.026997945927524948,
                "879": -0.029995604021317544,
                "880": -0.006510445073226505,
                "881": 0.02299486500747706,
                "882": 0.05155512763248428,
                "883": -0.018255905876752777,
                "884": 0.021509616269972588,
                "885": -0.030300931727275722,
                "886": 0.012502461947183335,
                "887": 0.011591569233316007,
                "888": -0.009152170568808227,
                "889": -0.02619606713151964,
                "890": -0.04887401870003046,
                "891": -0.01757753252402192,
                "892": -0.01963551878670369,
                "893": 0.012277216078764572,
                "894": -0.283957757495178,
                "895": 0.031250304290184175,
                "896": 0.0009756938788592451,
                "897": 0.026184021317513864,
                "898": -0.050027299407804114,
                "899": 0.020229614342560494,
                "900": -0.04981628383341385,
                "901": -0.14498476831637963,
                "902": -0.08529441613921035,
                "903": -0.0485172404141746,
                "904": -0.06643515567995317,
                "905": 0.0717098408145444,
                "906": -0.07339116643788712,
                "907": 0.026666088678296188,
                "908": 0.02824037635139915,
                "909": 0.04931064047205952,
                "910": 0.020743229633916647,
                "911": 0.049160474005016386,
                "912": 0.008043601955522757,
                "913": 0.017326586319972147,
                "914": 0.009924618836143973,
                "915": -0.061999353255039906,
                "916": 0.02304631712042053,
                "917": 0.06789112497764628,
                "918": 0.06113945079748044,
                "919": 0.05976534513299067,
                "920": -0.014454587809912102,
                "921": -0.060844360230272516,
                "922": 0.043156572290391056,
                "923": -0.05502045644383755,
                "924": 0.08307923125626251,
                "925": -0.11186378686342549,
                "926": -1.252556245564059,
                "927": 0.012221794015420328,
                "928": 0.0569435820273245,
                "929": -0.041899335019193504,
                "930": -0.017880002778096194,
                "931": 0.026527357714985662,
                "932": -0.02400662903687371,
                "933": -0.057182941392452453,
                "934": 0.07301973175764534,
                "935": -0.059657344888167985,
                "936": 0.048108290522057916,
                "937": 0.029405209045967415,
                "938": 0.054920169783021805,
                "939": -0.053841737380979124,
                "940": -0.0554779088554309,
                "941": -0.028666303075772073,
                "942": -0.020022825709925682,
                "943": 0.031526184338098846,
                "944": -0.23099583863123718,
                "945": 0.06453443134054897,
                "946": 0.0002907806311995007,
                "947": 0.06253612186716816,
                "948": -0.08329549985467975,
                "949": 0.044628218303345055,
                "950": 0.04392287972950662,
                "951": 0.41236970597541583,
                "952": 0.052248398777306956,
                "953": 0.026584289147251687,
                "954": 0.03231381997918626,
                "955": -0.03963060859803165,
                "956": 0.05191121433477829,
                "957": -0.005832824490068951,
                "958": -0.009548940514728156,
                "959": -0.02429588696672739,
                "960": -0.01906935509854616,
                "961": -0.024663401203056916,
                "962": 0.011227808949785813,
                "963": -0.0220186800326946,
                "964": 0.00042118288290321314,
                "965": 0.03103640362625191,
                "966": -0.030929956508157868,
                "967": -0.04304999948000394,
                "968": -0.030242208558940033,
                "969": -0.04178227748547928,
                "970": 0.013722036530614148,
                "971": 0.044713854728854176,
                "972": -0.025489895820202006,
                "973": 0.023665099595782134,
                "974": -0.05260540733848484,
                "975": 0.16368598643221838,
                "976": -1.0185332172521002,
                "977": -0.03298302956264817,
                "978": -0.045176698408715125,
                "979": 0.019343433400964425,
                "980": 0.01695754521924055,
                "981": -0.024033888781996682,
                "982": 0.027268094073615752,
                "983": 0.03326493816428184,
                "984": -0.08815201971470984,
                "985": 0.04300567000697274,
                "986": -0.03060030261902166,
                "987": -0.019567541969619583,
                "988": -0.05607291972526731,
                "989": 0.04398823823010966,
                "990": 0.023513717939074766,
                "991": 0.02988608900946505,
                "992": 0.013854390186941718,
                "993": -0.014960196320512802,
                "994": -0.5346357740666506,
                "995": -0.03999450981472596,
                "996": 0.01694618178339384,
                "997": -0.05854499754879797,
                "998": 0.045812749670691016,
                "999": -0.02803568981366697,
                "1000": 0.09074683966230826,
                "1001": 0.6389933467279988,
                "1002": 0.07912266826701196,
                "1003": 0.0077914605019722225,
                "1004": 0.05876190349372427,
                "1005": -0.08599846739278418,
                "1006": 0.07955519142210364,
                "1007": -0.003098605163171187,
                "1008": 0.040076907328871994,
                "1009": -0.03440755750287048,
                "1010": -0.025031808192925182,
                "1011": -0.04411762160259193,
                "1012": 0.024709253305921667,
                "1013": -0.047466736333648556,
                "1014": 0.012841198957846063,
                "1015": 0.057262779642849884,
                "1016": -0.05807559685820697,
                "1017": -0.059915812793066923,
                "1018": -0.06918749681582413,
                "1019": -0.06717933126108645,
                "1020": 0.05139538285333083,
                "1021": 0.06763215206494545,
                "1022": -0.03586019698254028,
                "1023": 0.05730342984845924,
                "1024": -0.048983178073409336,
                "1025": 0.28662072044524406,
                "1026": -0.951373877298278,
                "1027": -0.03293222222679578,
                "1028": -0.07870447857137308,
                "1029": 0.005973855609282128,
                "1030": 0.038096627364549406,
                "1031": -0.03382923369008774,
                "1032": 0.16244408943550342,
                "1033": 0.07190124167792095,
                "1034": -0.16524146448362967,
                "1035": 0.07695544937175554,
                "1036": -0.06506358534030642,
                "1037": -0.027813948384380657,
                "1038": -0.15987410460725007,
                "1039": 0.07262222162933955,
                "1040": -0.013688821636139674,
                "1041": 0.057876368993178,
                "1042": 0.006189652348897891,
                "1043": -0.037400317129109364,
                "1044": -0.6344571186318132,
                "1045": -0.056740418509938245,
                "1046": 0.004420647079662897,
                "1047": -0.105137068824631,
                "1048": 0.05037440447003214,
                "1049": -0.04792671755527475,
                "1050": 0.08276407602825317,
                "1051": 0.6643475438679113,
                "1052": 0.10443084151177724,
                "1053": 0.033176898939630516,
                "1054": 0.07517254105676181,
                "1055": -0.10594863757279686,
                "1056": 0.09614581043127003,
                "1057": -0.021581416100735436,
                "1058": 0.012069324102047503,
                "1059": -0.046610206509015435,
                "1060": -0.025252101096791386,
                "1061": -0.05136088459359023,
                "1062": 0.014932988777099044,
                "1063": -0.04201868223356309,
                "1064": 0.002530095123316849,
                "1065": 0.0715432880730754,
                "1066": -0.04304146883698013,
                "1067": -0.08183622242776083,
                "1068": -0.0883866893733815,
                "1069": -0.07338431955173043,
                "1070": 0.030090538374507664,
                "1071": 0.07684248074000205,
                "1072": -0.045277283961211404,
                "1073": 0.06495334792793857,
                "1074": -0.08370769920949488,
                "1075": 0.10432941646611538,
                "1076": -0.8566603736567215,
                "1077": -0.023982846335784628,
                "1078": -0.08197051809008277,
                "1079": 0.03172606779592358,
                "1080": 0.03599223144083974,
                "1081": -0.03211227178392651,
                "1082": 0.13346566992651723,
                "1083": 0.08887510412568086,
                "1084": -0.15525610332968412,
                "1085": 0.08152872308394636,
                "1086": -0.07821422068107123,
                "1087": -0.041020534836373294,
                "1088": -0.1491362927848054,
                "1089": 0.07564086510892278,
                "1090": 0.02112659200654934,
                "1091": 0.04815164429522155,
                "1092": 0.013273583635891218,
                "1093": -0.042649861223295234,
                "1094": -0.5296593666221956,
                "1095": -0.08167112604880743,
                "1096": -0.0010934836830866128,
                "1097": -0.10438826696201772,
                "1098": 0.08514940947969551,
                "1099": -0.06088116122412403,
                "1100": 0.031127891577195588,
                "1101": 0.4291997433049367,
                "1102": 0.0542562170093088,
                "1103": 0.00859010089276371,
                "1104": 0.03986512963354492,
                "1105": -0.05066803482828897,
                "1106": 0.04342119436297077,
                "1107": -0.023189368488152153,
                "1108": 0.02437587407510782,
                "1109": -0.019370462575848815,
                "1110": 0.009194261756110546,
                "1111": -0.024103860700221223,
                "1112": -0.008309587194601196,
                "1113": -0.003990577151404103,
                "1114": -0.009226017445409499,
                "1115": 0.04035898990880014,
                "1116": 0.000912948899521576,
                "1117": -0.03900921127202803,
                "1118": -0.04410672596556706,
                "1119": -0.027463104219587777,
                "1120": -0.008995664442733696,
                "1121": 0.033433362241616416,
                "1122": -0.016197924006656386,
                "1123": 0.031940758747290986,
                "1124": -0.03876666848379775,
                "1125": -0.1291470224444771,
                "1126": -1.005392487364758,
                "1127": -0.028826017541252177,
                "1128": -0.0301224199426446,
                "1129": 0.0039065815741450355,
                "1130": 0.006658356858095614,
                "1131": -0.0008885899662830165,
                "1132": 0.1325850027585988,
                "1133": 0.039710180827608334,
                "1134": -0.06779501242005759,
                "1135": 0.04203619646675963,
                "1136": -0.04437171949958806,
                "1137": -0.01523740224358211,
                "1138": -0.12194057277851972,
                "1139": 0.026821007624657316,
                "1140": 0.006181816193562455,
                "1141": 0.006191589802823487,
                "1142": -0.016532773707954036,
                "1143": -0.01452246446820395,
                "1144": -0.22358748050849053,
                "1145": -0.03250383054631736,
                "1146": 0.021631096612265706,
                "1147": -0.027750463717963383,
                "1148": 0.04133451595341263,
                "1149": -0.020480863591249565,
                "1150": 0.04923611592167827,
                "1151": 0.38905861378745515,
                "1152": 0.1741343557159749,
                "1153": 0.14191702303712303,
                "1154": 0.1526984623180686,
                "1155": -0.13266105267432832,
                "1156": 0.1024612122834314,
                "1157": -0.07797525905510794,
                "1158": -0.1166221113357751,
                "1159": -0.12195156814736485,
                "1160": -0.042743881241368076,
                "1161": -0.11511815734835053,
                "1162": -0.052147275407477614,
                "1163": -0.0032587909347859107,
                "1164": -0.05108594484367526,
                "1165": 0.1517706534840759,
                "1166": -0.027707970489307863,
                "1167": -0.14565051933984796,
                "1168": -0.08973989428540004,
                "1169": -0.0830066380107109,
                "1170": -0.006836820252973959,
                "1171": 0.09318248165989566,
                "1172": -0.11969656292436426,
                "1173": 0.10617503033798907,
                "1174": -0.14504488282741884,
                "1175": -0.07451927654767708,
                "1176": -1.042435242124717,
                "1177": -0.02204677068489789,
                "1178": -0.07437971694875438,
                "1179": 0.11230723039977979,
                "1180": 0.008567168758453963,
                "1181": -0.07209227062333474,
                "1182": -0.055323750998251334,
                "1183": 0.07967024465340013,
                "1184": -0.025269971993763456,
                "1185": 0.11121502329066799,
                "1186": -0.0666643866764157,
                "1187": -0.0437456412693924,
                "1188": -0.09561525300252433,
                "1189": 0.07558558648688213,
                "1190": 0.15920363931879006,
                "1191": 0.05010947643884829,
                "1192": 0.053460801563116486,
                "1193": -0.04610635305765444,
                "1194": -0.09079869447451003,
                "1195": -0.13086948052700198,
                "1196": 0.03438112478647633,
                "1197": -0.03311261060810329,
                "1198": 0.18055598754201477,
                "1199": -0.0802675578416444
            }
        },
        "b2": {
            "n": 24,
            "d": 1,
            "w": {
                "0": 1.8096415171434383,
                "1": 1.8507866497539383,
                "2": 1.8644315169165717,
                "3": 2.5069075866144686,
                "4": 2.8756693719556297,
                "5": 2.612198358791632,
                "6": 2.3088458457275243,
                "7": 2.026262637243059,
                "8": 1.8239832909794016,
                "9": 2.039199110532986,
                "10": 1.7140247378726485,
                "11": 2.610391349316308,
                "12": 2.081141780655001,
                "13": 2.693236842301238,
                "14": 1.6297308873060725,
                "15": 1.7532587571018048,
                "16": 1.861962789859732,
                "17": 1.8903833733610877,
                "18": 1.765904344668358,
                "19": 2.2749562765687714,
                "20": 2.4856935235283144,
                "21": 2.4638031768721906,
                "22": 2.1942336119981016,
                "23": 2.066571573262058
            }
        }
    }
}