{
    "nh": 50,
    "ns": 2,
    "na": 24,
    "net": {
        "W1": {
            "n": 50,
            "d": 2,
            "w": {
                "0": 0.010819466019273784,
                "1": -0.22101151359643784,
                "2": -2.1048778536193193,
                "3": -5.866868835898445,
                "4": -0.03772899774196601,
                "5": -0.04544458717549352,
                "6": -0.005315460073175532,
                "7": -0.026975651354538447,
                "8": 0.0030935347751564393,
                "9": -0.01856694583831212,
                "10": -0.043077095635287985,
                "11": -0.04444458987863485,
                "12": 0.017007298623839685,
                "13": -0.1296455121809825,
                "14": 0.014757287673806116,
                "15": -0.15276160490794263,
                "16": -0.023110092487885772,
                "17": 0.03300341427913039,
                "18": -0.01090947580490534,
                "19": 0.05917940967632489,
                "20": -0.030238980913415557,
                "21": 0.12608812544959946,
                "22": 0.017185630752447754,
                "23": 0.08910502341082961,
                "24": 0.015994971926186607,
                "25": -0.10762447583585363,
                "26": -0.04249630434105952,
                "27": 0.11547191442462289,
                "28": 0.025037647737532608,
                "29": -0.07704246407795688,
                "30": -0.016183361137671638,
                "31": -0.025793824539056615,
                "32": -0.007098427496006488,
                "33": 0.25358888151681386,
                "34": 0.003161464035660685,
                "35": 0.015760791390962696,
                "36": -0.06305443319920764,
                "37": -0.0886395215707959,
                "38": -0.006406828200434875,
                "39": 0.16696877386529174,
                "40": 0.03463083197900311,
                "41": -0.3950058733751483,
                "42": 0.00571401069783933,
                "43": -0.1398593056822133,
                "44": 0.011152199123553176,
                "45": 0.07278008717673981,
                "46": 0.021645186326351058,
                "47": -0.02977166705660316,
                "48": 0.009906459019794487,
                "49": 0.07243485474538677,
                "50": 0.1300353152938015,
                "51": 2.2971668275414436,
                "52": 0.3183608356354322,
                "53": 12.894560938238158,
                "54": 0.06284238734640019,
                "55": -0.7199138949306715,
                "56": -0.014884958513211761,
                "57": 0.19056351629592228,
                "58": 0.021845420596296544,
                "59": 0.020024360934663265,
                "60": 0.03280944937773136,
                "61": -0.053702881347311326,
                "62": -0.008484334003147931,
                "63": 0.15926496240301688,
                "64": 0.014168004370719182,
                "65": 0.2733524113108504,
                "66": 0.05748569159741836,
                "67": 0.061243368037732386,
                "68": 0.05457002722011239,
                "69": 0.3762970429143099,
                "70": -0.015271574478013212,
                "71": -0.11998924670026005,
                "72": -0.03832691236574838,
                "73": -0.08059775337508382,
                "74": -0.0438454135581093,
                "75": -0.024660562388293356,
                "76": 0.02569239563319287,
                "77": -0.28111444254817447,
                "78": 0.024277426390927847,
                "79": -0.17882963868027182,
                "80": -0.021021622246359218,
                "81": -0.022440530761116094,
                "82": 0.014794831912596654,
                "83": -0.1904646194567667,
                "84": 0.030825795907305217,
                "85": -0.09067775312260393,
                "86": -0.03661310480160798,
                "87": 0.005423819205322684,
                "88": -1.99854724826397,
                "89": 6.268152777349081,
                "90": -0.019831301153159172,
                "91": -0.02734415270993184,
                "92": -0.06864590776290631,
                "93": 0.6633856774443447,
                "94": -0.008754881378284358,
                "95": 0.30995336121013867,
                "96": -0.030824523625843325,
                "97": -0.013016768625047056,
                "98": -0.03899831287123774,
                "99": 0.018974048344271768
            }
        },
        "b1": {
            "n": 50,
            "d": 1,
            "w": {
                "0": -0.002791827133192732,
                "1": -1.6347806527128736,
                "2": 0.022350572119300617,
                "3": 0.012731193932858922,
                "4": 0.0058582648258256485,
                "5": 0.013617017723791125,
                "6": -0.0044826350579928185,
                "7": -0.006593552478286775,
                "8": -0.004428828292938378,
                "9": -0.0037006489595733634,
                "10": 0.005711945499910476,
                "11": -0.014120043239538197,
                "12": -0.008073929943501583,
                "13": 0.014847340816746912,
                "14": -0.012381507870883395,
                "15": 0.014084806422174452,
                "16": -0.0028201271735753992,
                "17": -0.00766964796552874,
                "18": 0.022918020819178885,
                "19": -0.0011285315817782722,
                "20": -0.007354148688426296,
                "21": 0.001164144776662418,
                "22": -0.012929783839726084,
                "23": -0.0037691624480065563,
                "24": -0.009987035744336403,
                "25": 0.036330257064157594,
                "26": -1.1437141771577526,
                "27": -0.017038804845834896,
                "28": 0.003088661090565644,
                "29": 0.00008310109755244993,
                "30": -0.012008308869181741,
                "31": -0.004856378022630951,
                "32": -0.04256876754913329,
                "33": -0.020718202671489216,
                "34": -0.014684105953806627,
                "35": 0.009648079802247656,
                "36": 0.016553122546261366,
                "37": 0.01607487925871594,
                "38": 0.005189340895771932,
                "39": -0.006408981225860345,
                "40": 0.020857369946677782,
                "41": -0.0005319921472867841,
                "42": -0.004078349203011081,
                "43": 0.012685731998442513,
                "44": 1.9507746711005785,
                "45": 0.0024418915844916823,
                "46": 0.02255297778705067,
                "47": 0.002039434110860518,
                "48": 0.022234796577486966,
                "49": 0.011609444682604341
            }
        },
        "W2": {
            "n": 24,
            "d": 50,
            "w": {
                "0": 0.018689440529713483,
                "1": 0.555320084567268,
                "2": 0.09122730750980132,
                "3": 0.0940482656014783,
                "4": 0.09734832810451462,
                "5": -0.0956231772392287,
                "6": 0.053634214450921674,
                "7": -0.04866848220220819,
                "8": -0.08074070027893657,
                "9": -0.0766859393570243,
                "10": -0.04093216983125596,
                "11": -0.068490782758884,
                "12": -0.028242252931692198,
                "13": -0.02127538433897989,
                "14": -0.030749171903715292,
                "15": 0.09579806595407002,
                "16": -0.014166320122906553,
                "17": -0.10094506164343378,
                "18": -0.06907917735983006,
                "19": -0.039364153805166995,
                "20": -0.011939215887884387,
                "21": 0.05014442447127216,
                "22": -0.07757341213144806,
                "23": 0.0775659865457052,
                "24": -0.07863305544065355,
                "25": -0.07535758630226978,
                "26": -0.739597917750336,
                "27": 0.018099035938034667,
                "28": -0.03269815556590455,
                "29": 0.0881674363195119,
                "30": 0.02306729419507778,
                "31": -0.04194671834497837,
                "32": -0.034031086668894366,
                "33": 0.07123088869249877,
                "34": 0.001509249864517436,
                "35": 0.05767114194496894,
                "36": -0.0634082331080561,
                "37": -0.04672937156506357,
                "38": -0.0314650317231737,
                "39": 0.03518674943900325,
                "40": 0.09075259909200618,
                "41": 0.029225776201998694,
                "42": 0.04481584685759326,
                "43": -0.044470212370153604,
                "44": -0.37069832918833706,
                "45": -0.09711542646971634,
                "46": -0.006945808484679796,
                "47": -0.004425263893746397,
                "48": 0.10151927675124048,
                "49": -0.06727047176754601,
                "50": 0.02661061113998663,
                "51": 0.47430105069924783,
                "52": 0.09830778294754834,
                "53": 0.07688204346328721,
                "54": 0.0737267276758531,
                "55": -0.09539053537823033,
                "56": 0.08561099314413395,
                "57": -0.05052949186001602,
                "58": -0.06356734503431194,
                "59": -0.05156579789094539,
                "60": -0.02225724281613856,
                "61": -0.04661582045169843,
                "62": -0.012636433902707588,
                "63": -0.010078469926882463,
                "64": -0.017495759174580447,
                "65": 0.0638577323190014,
                "66": -0.0016851442332652506,
                "67": -0.08595561014371544,
                "68": -0.08840985022004558,
                "69": -0.059249697591153345,
                "70": -0.02225832504930551,
                "71": 0.06205175695520198,
                "72": -0.04274654482274106,
                "73": 0.048810583343370864,
                "74": -0.11179804063580755,
                "75": -0.09978466251445775,
                "76": -0.6737241283843518,
                "77": -0.0288666702043562,
                "78": -0.05336638215876111,
                "79": 0.07616899764043607,
                "80": 0.020378022010920014,
                "81": -0.024257924750469857,
                "82": -0.012248461350151976,
                "83": 0.08586992217695982,
                "84": -0.041007768345932546,
                "85": 0.05354168805403826,
                "86": -0.06848952440778032,
                "87": -0.05097366338862544,
                "88": -0.05861128706540324,
                "89": 0.055736125819393814,
                "90": 0.09538328862835777,
                "91": 0.01350949042846331,
                "92": 0.029985049338126627,
                "93": -0.037875775396639916,
                "94": -0.629258853685574,
                "95": -0.0952119741757812,
                "96": 0.01864169648181991,
                "97": -0.05137314151279559,
                "98": 0.11563621006164232,
                "99": -0.05979594309183618,
                "100": 0.06325881404798066,
                "101": 0.029472639363196176,
                "102": 0.11402488652565601,
                "103": 0.06654052882092482,
                "104": 0.08341299489381722,
                "105": -0.08242939149351235,
                "106": 0.08330651018765226,
                "107": -0.03457153027922718,
                "108": -0.0367879192378341,
                "109": -0.06183303712257679,
                "110": -0.027742096486626337,
                "111": -0.06686821066741457,
                "112": -0.006317756868893302,
                "113": -0.01950065757120337,
                "114": -0.016146184969484174,
                "115": 0.08197687521054535,
                "116": -0.03566422176515303,
                "117": -0.08686374429632861,
                "118": -0.05464500547877978,
                "119": -0.07093820701534602,
                "120": 0.019856922380557147,
                "121": 0.07209828030941438,
                "122": -0.0665575460720836,
                "123": 0.06326897933319311,
                "124": -0.09863364272228084,
                "125": -0.04021701403539515,
                "126": -0.7470734544621929,
                "127": 0.002580737447259671,
                "128": -0.07651870691824518,
                "129": 0.050870397146186415,
                "130": 0.014807788588698514,
                "131": -0.0393999257857289,
                "132": -0.0032560461685198694,
                "133": 0.054153256491516054,
                "134": -0.09746918512914948,
                "135": 0.07979889604755082,
                "136": -0.04454292693988635,
                "137": -0.02747754292951517,
                "138": -0.06315644541549868,
                "139": 0.06688508170948526,
                "140": 0.07147115506504509,
                "141": 0.04204361787989016,
                "142": 0.027467388575568227,
                "143": -0.029647525778668176,
                "144": -0.6716553984010274,
                "145": -0.07894224179963436,
                "146": -0.006998333077017097,
                "147": -0.07790400857492964,
                "148": 0.1051398770300494,
                "149": -0.05173524290988737,
                "150": 0.03799020383033275,
                "151": 0.4943245723194815,
                "152": 0.025106149469235842,
                "153": 0.02288591792500871,
                "154": 0.02927391450928112,
                "155": -0.02243685522069923,
                "156": 0.02894249589406248,
                "157": 0.011386589690312535,
                "158": -0.021256793244686094,
                "159": -0.03005577977939656,
                "160": -0.03061488761157737,
                "161": -0.0290739947656776,
                "162": 0.009296091733845617,
                "163": -0.026958212994196967,
                "164": 0.005956981372743274,
                "165": 0.026951995923342367,
                "166": -0.040213824885221364,
                "167": -0.026210610501785123,
                "168": -0.011006845440855251,
                "169": -0.030723251754069734,
                "170": 0.05052731541835922,
                "171": 0.029988688801226054,
                "172": -0.030665057512044656,
                "173": 0.02881531716789612,
                "174": -0.020666271844696806,
                "175": 0.046688750195200045,
                "176": -0.7456819211090685,
                "177": 0.06014196312936646,
                "178": -0.03505178288058438,
                "179": 0.01735623826543874,
                "180": 0.01652542866854892,
                "181": -0.0343314772630891,
                "182": -0.030658558516896244,
                "183": 0.014141991226954595,
                "184": -0.031678099665709426,
                "185": 0.030650858106532973,
                "186": -0.007130724093265567,
                "187": -0.009654325822795722,
                "188": 0.019007865803797656,
                "189": 0.03516536117542786,
                "190": 0.015603313112075554,
                "191": 0.03801392314259151,
                "192": 0.0266470571270688,
                "193": -0.01608323872665362,
                "194": -0.7969927866306329,
                "195": -0.020124283564657463,
                "196": -0.05686077148269424,
                "197": -0.037145568488531434,
                "198": 0.019774736449471204,
                "199": -0.023014886750976044,
                "200": 0.003352841673743587,
                "201": 0.5358836344521304,
                "202": -0.03215538213873068,
                "203": -0.028665129641235618,
                "204": -0.02673831480042725,
                "205": 0.0345415913527236,
                "206": -0.020564228024829444,
                "207": 0.025402578610176443,
                "208": 0.02413580421731862,
                "209": 0.018419313688725084,
                "210": 0.003013582741090002,
                "211": 0.015537273412755773,
                "212": 0.013810932228136782,
                "213": -0.0030554656070652933,
                "214": 0.011922649793919063,
                "215": -0.025723515050806348,
                "216": -0.013401928694712857,
                "217": 0.030698842010001587,
                "218": 0.03542311900884274,
                "219": 0.009998693488923805,
                "220": 0.028281733373156686,
                "221": -0.012940088443108412,
                "222": 0.014853160677862964,
                "223": -0.019837111088126875,
                "224": 0.03482064962854192,
                "225": -0.03283762913912184,
                "226": -0.6757490222419357,
                "227": 0.03904160609915062,
                "228": 0.005208762576414274,
                "229": -0.029019773349987035,
                "230": -0.00422278657874704,
                "231": 0.00024437364511268613,
                "232": 0.005820253127012594,
                "233": -0.032075197324939686,
                "234": -0.012012168500531105,
                "235": -0.01163177409733686,
                "236": 0.02794737629111622,
                "237": 0.018760143309711555,
                "238": 0.02477360355550317,
                "239": -0.005256429141967269,
                "240": -0.03622782193992718,
                "241": 0.004525799890833723,
                "242": -0.00848303370120622,
                "243": 0.013956412912077864,
                "244": -0.9216429961859128,
                "245": 0.034143691631010345,
                "246": -0.03546829560358518,
                "247": -0.0029062828251382317,
                "248": -0.04042795094612094,
                "249": 0.020441521115887352,
                "250": 0.05232423155029211,
                "251": 0.6823946662343059,
                "252": 0.03788116748013264,
                "253": 0.008662287889419302,
                "254": 0.03312566256224912,
                "255": -0.020097156301627436,
                "256": 0.020415996562993463,
                "257": 0.009840205982950408,
                "258": 0.005772539178214968,
                "259": -0.03146293111280107,
                "260": -0.022971596489054415,
                "261": -0.028083484868238816,
                "262": 0.01173681737986348,
                "263": -0.026564736966930933,
                "264": 0.0024972133729659913,
                "265": 0.04084278036969764,
                "266": -0.04684754089917569,
                "267": -0.028243897868561085,
                "268": 0.0008159957588800359,
                "269": -0.02510815325402905,
                "270": 0.05203748609865191,
                "271": 0.02674431232256433,
                "272": -0.04152290797291181,
                "273": 0.034470006165543986,
                "274": -0.004295779351304872,
                "275": -0.017963509408370923,
                "276": -0.6167353460458606,
                "277": 0.02514101270515152,
                "278": -0.03811143304839015,
                "279": -0.00128564094850566,
                "280": 0.006643826219473015,
                "281": -0.03142004520682803,
                "282": 0.04572652700617754,
                "283": -0.0012917707654364389,
                "284": -0.07431206460267203,
                "285": 0.04093583382557526,
                "286": 0.0009041195441112086,
                "287": 0.00711608417137697,
                "288": -0.055794085955367084,
                "289": 0.030682519019669077,
                "290": -0.014528708512972194,
                "291": 0.044674687788550015,
                "292": 0.012142983029168058,
                "293": -0.008864716275814267,
                "294": -0.8423856417026331,
                "295": -0.015279629652331822,
                "296": -0.02677940422950662,
                "297": -0.04233851132552947,
                "298": 0.016373775463123717,
                "299": -0.015511273122704733,
                "300": -0.034832807741317355,
                "301": 0.5204004837025658,
                "302": -0.059452125973846394,
                "303": -0.034076278122559214,
                "304": -0.04308719136004544,
                "305": 0.03401700975976536,
                "306": -0.037757445200684726,
                "307": 0.011278584047647894,
                "308": 0.01796135120110654,
                "309": 0.033657046462748454,
                "310": 0.016581968459908666,
                "311": 0.038956278467548226,
                "312": 0.0029094310141000437,
                "313": 0.010378830573606963,
                "314": 0.008480754619527665,
                "315": -0.04665776081451386,
                "316": 0.025979410623082733,
                "317": 0.04407682943006498,
                "318": 0.017467128524422105,
                "319": 0.034340992000960524,
                "320": -0.02010419697388964,
                "321": -0.03564581301962329,
                "322": 0.03866204098311433,
                "323": -0.03239818869452487,
                "324": 0.043898549336676015,
                "325": -0.014348495680596924,
                "326": -0.7869115073908094,
                "327": -0.014213904057207797,
                "328": 0.03499329339870537,
                "329": -0.022770607240739458,
                "330": -0.006400367639070419,
                "331": 0.026154468113451578,
                "332": 0.004874116747601672,
                "333": -0.018132287237897452,
                "334": 0.059434407399165196,
                "335": -0.0426581728856065,
                "336": 0.014985479000299244,
                "337": 0.006185171346201746,
                "338": 0.03211943347118381,
                "339": -0.031010696756018384,
                "340": -0.03510677105179337,
                "341": -0.02664449136383942,
                "342": -0.014205430611960284,
                "343": 0.011829235683353317,
                "344": -0.7222763221583478,
                "345": 0.03442962554034154,
                "346": 0.013837555472815437,
                "347": 0.03837769703031687,
                "348": -0.053897566687630356,
                "349": 0.02132398469483737,
                "350": 0.03881442603977227,
                "351": 0.3095513488390533,
                "352": 0.09283140395638582,
                "353": 0.07052128138598311,
                "354": 0.08946292335161485,
                "355": -0.08952852936731298,
                "356": 0.06622247263346412,
                "357": -0.036687711551395025,
                "358": -0.046464155842974905,
                "359": -0.06617180846438551,
                "360": -0.031332881468604454,
                "361": -0.06207938738267968,
                "362": -0.02152787430028741,
                "363": -0.019352607666079543,
                "364": -0.016603752413585485,
                "365": 0.08530532370902368,
                "366": -0.018995205427668648,
                "367": -0.0891555371828273,
                "368": -0.0656623063134349,
                "369": -0.04887585348703121,
                "370": -0.0023936438547649138,
                "371": 0.05836801467525232,
                "372": -0.060580837190818776,
                "373": 0.06915259182047961,
                "374": -0.07587377604107134,
                "375": -0.046637420707132005,
                "376": -0.9120601507961233,
                "377": -0.019011003941096484,
                "378": -0.04499394743386487,
                "379": 0.05690780423752301,
                "380": 0.019543149338048467,
                "381": -0.03569583706150112,
                "382": 0.03676561992392781,
                "383": 0.06220283765709506,
                "384": -0.036529030187955995,
                "385": 0.06202971925535616,
                "386": -0.05955184427267982,
                "387": -0.03855406282869493,
                "388": -0.07521908445762585,
                "389": 0.04841947896227258,
                "390": 0.06466647366637913,
                "391": 0.03414535950137999,
                "392": 0.03125294663676744,
                "393": -0.03484456191065842,
                "394": -0.4569316940515751,
                "395": -0.07904391857890784,
                "396": 0.016176100175798173,
                "397": -0.02480552818036774,
                "398": 0.08495814810090223,
                "399": -0.05511425253751226,
                "400": 0.022587406756785066,
                "401": 0.13593287231729648,
                "402": 0.03378185681633925,
                "403": 0.012836187144064367,
                "404": 0.0338568651709127,
                "405": -0.028171029615354275,
                "406": 0.01597695422839157,
                "407": -0.01127339165377123,
                "408": -0.00459354625412735,
                "409": -0.027615348145261922,
                "410": -0.00845862472254923,
                "411": -0.0213292928241866,
                "412": -0.00922821703943794,
                "413": -0.009843025725122382,
                "414": -0.007648999291806805,
                "415": 0.03443398071870203,
                "416": -0.007225916358859163,
                "417": -0.02723288355286,
                "418": -0.020142048496809135,
                "419": -0.013512399825109813,
                "420": 0.00651461636125179,
                "421": 0.017051687368292438,
                "422": -0.02791195841094181,
                "423": 0.03501710594743338,
                "424": -0.01563805240836306,
                "425": -0.06019932240012274,
                "426": -0.8202835184783941,
                "427": -0.006424168907876635,
                "428": -0.0184516883206996,
                "429": 0.01098994572673707,
                "430": 0.0023250593049637175,
                "431": -0.008723545796441854,
                "432": 0.05188146853755361,
                "433": 0.013905837746205484,
                "434": -0.006406604965991857,
                "435": 0.026025727615490993,
                "436": -0.014928001925366027,
                "437": -0.006575582027548804,
                "438": -0.040929689765915156,
                "439": 0.013694405949402539,
                "440": 0.004579373378715724,
                "441": 0.014635852412111402,
                "442": 0.006269178028870982,
                "443": -0.014729185057118946,
                "444": -0.5961655475806856,
                "445": -0.0210354699381697,
                "446": 0.006845765930954609,
                "447": -0.005981777866209436,
                "448": 0.022230091711522883,
                "449": -0.01887303934709545,
                "450": 0.03323102447632768,
                "451": 0.2638076632174406,
                "452": 0.1628334782431835,
                "453": 0.12716730680250735,
                "454": 0.14104354400786331,
                "455": -0.13504067971104247,
                "456": 0.08508616821813575,
                "457": -0.07050061341307788,
                "458": -0.10957025502533964,
                "459": -0.10819521876883459,
                "460": -0.04114566446425044,
                "461": -0.09948751800672352,
                "462": -0.04683523741428281,
                "463": -0.017538475765285465,
                "464": -0.045390534858602595,
                "465": 0.13786325103407374,
                "466": -0.01768753266028694,
                "467": -0.13722200029358958,
                "468": -0.10159639980769435,
                "469": -0.06526903039481656,
                "470": -0.0048659766687078965,
                "471": 0.07580982018619374,
                "472": -0.10079624159956821,
                "473": 0.1045510981882383,
                "474": -0.13150451832705984,
                "475": -0.07425826673203745,
                "476": -0.7596318094736301,
                "477": 0.0140673767137969,
                "478": -0.05160790732404587,
                "479": 0.11490222336806881,
                "480": 0.02267436208514414,
                "481": -0.05797483227408398,
                "482": -0.1219312141944207,
                "483": 0.0961600408684793,
                "484": -0.013001737072506485,
                "485": 0.08386444775422416,
                "486": -0.07664928256370047,
                "487": -0.053435460455082004,
                "488": -0.034274161343764625,
                "489": 0.0551096881190173,
                "490": 0.14255520592983975,
                "491": 0.0354799539716397,
                "492": 0.057938524078796516,
                "493": -0.05264693866746509,
                "494": -0.5581553555582025,
                "495": -0.1293526543308047,
                "496": -0.00048692480563844735,
                "497": -0.026148729299540818,
                "498": 0.1728456883857267,
                "499": -0.08253291363666182,
                "500": -0.009765493735605752,
                "501": 0.2271092569436891,
                "502": -0.10227340726286027,
                "503": -0.03997160190769964,
                "504": -0.03919544274135505,
                "505": -0.04184267513827454,
                "506": 0.017109305538128474,
                "507": 0.02761088426327538,
                "508": -0.005600018852350017,
                "509": 0.025471801121395948,
                "510": -0.022257486685099956,
                "511": 0.06152273591027664,
                "512": 0.03125799358369607,
                "513": -0.048833372427490425,
                "514": 0.04910550868433561,
                "515": -0.07396884275379448,
                "516": 0.019215243332965225,
                "517": 0.04068621081246057,
                "518": -0.09093082340543948,
                "519": 0.0042941490437586076,
                "520": 0.02341444007446727,
                "521": -0.00850133988697778,
                "522": 0.06611931564625276,
                "523": -0.005029212309436865,
                "524": 0.026896699454807032,
                "525": -0.031427753751920764,
                "526": -0.7788733919583052,
                "527": 0.0894350018415634,
                "528": -0.002327304326863089,
                "529": 0.010635664415924413,
                "530": 0.04759593229847377,
                "531": 0.020350121119815205,
                "532": 0.06654722570317842,
                "533": 0.08516119867372546,
                "534": 0.08359086327185777,
                "535": -0.054625974818505806,
                "536": -0.060679048949675254,
                "537": -0.06883399905077586,
                "538": 0.04772700292464695,
                "539": 0.019796423130316224,
                "540": -0.05296190463975566,
                "541": -0.010746387913425987,
                "542": 0.022280731203039084,
                "543": -0.045172209494688385,
                "544": -0.6003322847887206,
                "545": -0.005903958621025977,
                "546": -0.10524456187344446,
                "547": -0.007587651748106382,
                "548": -0.08244533636108882,
                "549": -0.040376519975844814,
                "550": 0.046225479491323815,
                "551": 0.6505882536712742,
                "552": 0.09557660607392796,
                "553": 0.08048606662920223,
                "554": 0.0740279466627564,
                "555": -0.11664526163122305,
                "556": 0.1240302530756644,
                "557": -0.033483466516737954,
                "558": -0.07763089901191848,
                "559": -0.05371047645771699,
                "560": -0.03835259599965961,
                "561": -0.057646085853440734,
                "562": -0.005508378710403812,
                "563": -0.02814804525128406,
                "564": -0.0010389113380281476,
                "565": 0.05225555905727106,
                "566": -0.01885933900847238,
                "567": -0.08234732524462253,
                "568": -0.12164871446359593,
                "569": -0.09662026940467384,
                "570": 0.01698289519096663,
                "571": 0.09297074500252087,
                "572": -0.02566882145963887,
                "573": 0.05355812315889248,
                "574": -0.14861733591728324,
                "575": 0.07038416422902392,
                "576": -0.6486751887379186,
                "577": 0.04956374618229818,
                "578": -0.07976709488217087,
                "579": 0.08720889909002835,
                "580": 0.0433524660060932,
                "581": -0.03801592166627275,
                "582": -0.08784834496040386,
                "583": 0.11953504023152013,
                "584": -0.06273547097133199,
                "585": 0.06095770386980537,
                "586": -0.09082217442655219,
                "587": -0.079186322304713,
                "588": 0.011291523152630803,
                "589": 0.08641463790383994,
                "590": 0.12326996843052751,
                "591": 0.02448647123297804,
                "592": 0.04628760243082116,
                "593": -0.0559975507628644,
                "594": -0.6102979156008078,
                "595": -0.101060712065818,
                "596": -0.06159079297433046,
                "597": -0.10237034894997421,
                "598": 0.12066970997197253,
                "599": -0.0761884770502793,
                "600": 0.05507214304113961,
                "601": 0.4731622490432209,
                "602": 0.058018833165964324,
                "603": 0.020669254024683028,
                "604": 0.038034509337887684,
                "605": -0.011002148684276186,
                "606": 0.03259410679401608,
                "607": 0.008390496487907358,
                "608": 0.006741212357568934,
                "609": -0.02926260239660479,
                "610": -0.020096685721035464,
                "611": -0.04317952188010146,
                "612": 0.014743778122963645,
                "613": -0.01791050103317971,
                "614": 0.0015767731021170172,
                "615": 0.04634593592855106,
                "616": -0.04991019151933689,
                "617": -0.040140177528314995,
                "618": 0.022894693457629275,
                "619": -0.03509538482270658,
                "620": 0.04281391362104409,
                "621": 0.03475101596191738,
                "622": -0.04856053982162482,
                "623": 0.028074481576064077,
                "624": -0.018652851509860652,
                "625": -0.0023695945345763685,
                "626": -0.7403470509764337,
                "627": 0.005020371417606299,
                "628": -0.0436355346354679,
                "629": -0.0010551376123461695,
                "630": 0.002673837288000021,
                "631": -0.034056186563304607,
                "632": 0.03897489336320314,
                "633": -0.013437552508603928,
                "634": -0.12319944522704374,
                "635": 0.0495377426004104,
                "636": 0.012005625671273347,
                "637": 0.021284318769402556,
                "638": -0.05526278591259851,
                "639": 0.037037627594958815,
                "640": 0.0005574282577117772,
                "641": 0.04205607762170775,
                "642": 0.008622560731778132,
                "643": 0.001510786601245841,
                "644": -0.5369059186906089,
                "645": -0.016287911549957457,
                "646": -0.010674720546229432,
                "647": -0.054679892004803735,
                "648": 0.0379152630391753,
                "649": -0.006230400308389606,
                "650": 0.05009553803790386,
                "651": 0.531431956890047,
                "652": 0.0023912476962460317,
                "653": -0.03637655587643111,
                "654": -0.010966904343301848,
                "655": 0.0782628054401419,
                "656": -0.04537217882236479,
                "657": 0.04893847557387521,
                "658": 0.056380166985928175,
                "659": -0.0020398958775988307,
                "660": -0.005020141381551039,
                "661": -0.01820153778672932,
                "662": 0.02011376541844428,
                "663": -0.0067809914092720434,
                "664": 0.004744349357782408,
                "665": 0.015745266237712028,
                "666": -0.06795361190335655,
                "667": 0.023986437844033967,
                "668": 0.1150323569394083,
                "669": 0.010509613954711478,
                "670": 0.08263634754352009,
                "671": -0.012150382188300479,
                "672": -0.03779187052307445,
                "673": -0.0035867241916514945,
                "674": 0.0711587007684856,
                "675": 0.10121280038265798,
                "676": -0.7105293809518153,
                "677": 0.03521652894861744,
                "678": -0.009593322061963587,
                "679": -0.06707708345650859,
                "680": -0.02575212989392578,
                "681": -0.02883667328697482,
                "682": 0.03328444864457914,
                "683": -0.10926084804943535,
                "684": -0.09426297083627111,
                "685": 0.026709020833414022,
                "686": 0.0883357941786177,
                "687": 0.07821149456010942,
                "688": -0.015290215844817524,
                "689": -0.006377749266415522,
                "690": -0.07030971533331176,
                "691": 0.049974779109340645,
                "692": -0.013778595947279197,
                "693": 0.039107525103798745,
                "694": -0.9135867801285361,
                "695": 0.06503981882065207,
                "696": -0.02451083024099969,
                "697": -0.016179778713584905,
                "698": -0.042730050529430366,
                "699": 0.04711482139747399,
                "700": 0.03630126458694219,
                "701": 0.4472301622964667,
                "702": 0.06577472621283233,
                "703": -0.00666550767547624,
                "704": 0.03131678213461106,
                "705": 0.0025542748615176884,
                "706": -0.005219883806713627,
                "707": -0.011923295187725847,
                "708": 0.05422298959789411,
                "709": -0.01470502506347439,
                "710": 0.016631094470738468,
                "711": -0.0315920462104472,
                "712": -0.005968218316281945,
                "713": 0.010011805200289445,
                "714": -0.020623622785076224,
                "715": 0.05299788390177529,
                "716": -0.022613200004629592,
                "717": -0.0271669751276824,
                "718": 0.03785572658242615,
                "719": -0.004078198988377313,
                "720": 0.0010122130755266876,
                "721": 0.009986498703237786,
                "722": -0.042326039833333565,
                "723": 0.02060919276616329,
                "724": 0.007459585220985895,
                "725": -0.07051938367158417,
                "726": -0.7216351868768429,
                "727": -0.06565851257196066,
                "728": -0.013685877824830718,
                "729": -0.029971179561164563,
                "730": -0.021293221205914786,
                "731": -0.008940550171752125,
                "732": 0.1320471179611646,
                "733": -0.03666560712876057,
                "734": -0.10724201576546745,
                "735": 0.04952759522896992,
                "736": 0.01780624801723428,
                "737": 0.04122878612787908,
                "738": -0.13835582881276745,
                "739": -0.0006536389693811075,
                "740": -0.028203195938605437,
                "741": 0.0204301690388896,
                "742": -0.029682038211516625,
                "743": 0.018548427678028803,
                "744": -0.7120061802856602,
                "745": 0.0017171504392458773,
                "746": 0.06505835487261777,
                "747": -0.014287354159955277,
                "748": 0.02825177553945984,
                "749": 0.015945870927592882,
                "750": 0.03501454883897347,
                "751": 0.4291904246405934,
                "752": 0.02400568758021864,
                "753": 0.01198768877505226,
                "754": 0.035001951414296295,
                "755": -0.08346134480747067,
                "756": 0.056152984384765986,
                "757": -0.009795010351933904,
                "758": -0.0012710102682141828,
                "759": -0.02273594357188525,
                "760": -0.02313991430200356,
                "761": -0.009542791121554515,
                "762": 0.012760871967598503,
                "763": -0.04009735585760549,
                "764": 0.014392446872275515,
                "765": 0.023391692035717983,
                "766": -0.00828194923647999,
                "767": -0.03951734130253789,
                "768": -0.09153814555656604,
                "769": -0.031569052212351595,
                "770": 0.014893569913234584,
                "771": 0.03484485438820109,
                "772": -0.007089223891218027,
                "773": 0.04299453164440382,
                "774": -0.036380417781188584,
                "775": -0.1259720136979073,
                "776": -0.7562290550398304,
                "777": 0.026801837619589545,
                "778": -0.037489700723706644,
                "779": 0.03031161601628645,
                "780": 0.0388315249040826,
                "781": -0.007337421131839441,
                "782": 0.10555170844909875,
                "783": 0.0888356077932317,
                "784": -0.03985364169418673,
                "785": 0.022755472793014896,
                "786": -0.07506638282187816,
                "787": -0.05289652831816196,
                "788": -0.07214777798675782,
                "789": 0.03984687855814971,
                "790": -0.0016752417419639396,
                "791": 0.019608463438282285,
                "792": 0.01831129107531188,
                "793": -0.0454142470140003,
                "794": -0.4279611621605466,
                "795": -0.05677042589913318,
                "796": -0.04141309235101177,
                "797": -0.04583490437163035,
                "798": 0.024099278696506413,
                "799": -0.054996892114767236,
                "800": 0.059022367094030845,
                "801": 0.3779957737257526,
                "802": 0.17008900124985307,
                "803": 0.13245927957833403,
                "804": 0.12603682261756108,
                "805": -0.08831774169709823,
                "806": 0.096758452569228,
                "807": -0.06964286570391635,
                "808": -0.10117947562576411,
                "809": -0.10367378273547556,
                "810": -0.043627271218285295,
                "811": -0.11776741908704777,
                "812": -0.04103364736733947,
                "813": 0.0025242563349248998,
                "814": -0.049405684422578526,
                "815": 0.14534365654751502,
                "816": -0.029211381185268857,
                "817": -0.14033693232067582,
                "818": -0.05499181190647087,
                "819": -0.0835972312563162,
                "820": -0.020971245990273356,
                "821": 0.09261573450063752,
                "822": -0.11527547628731943,
                "823": 0.08828587905959615,
                "824": -0.15373918791028673,
                "825": -0.07935260048576877,
                "826": -0.7718706421148273,
                "827": -0.05420087195986707,
                "828": -0.07524492322785899,
                "829": 0.09937059644537546,
                "830": -0.005698369494804052,
                "831": -0.05527996465183406,
                "832": -0.07452029785963302,
                "833": 0.0433559128028106,
                "834": -0.08013358390556342,
                "835": 0.10389819468848302,
                "836": -0.04285988343812716,
                "837": -0.02814047033050643,
                "838": -0.07792196054996797,
                "839": 0.057128934382501204,
                "840": 0.16884397411785992,
                "841": 0.04564544433267267,
                "842": 0.043789255626756556,
                "843": -0.029127092860209723,
                "844": -0.3335110268840547,
                "845": -0.11234048788200868,
                "846": 0.06455726466447749,
                "847": -0.057650137578744175,
                "848": 0.18122174471947616,
                "849": -0.05787010540357569,
                "850": 0.0158555915582413,
                "851": 0.22139332304824932,
                "852": -0.041312956271124836,
                "853": -0.02677409707648396,
                "854": -0.01633409999513603,
                "855": -0.021247219129230645,
                "856": 0.01253194761349614,
                "857": 0.01701617149526023,
                "858": 0.009533243121387884,
                "859": 0.008799006872146289,
                "860": -0.013715334055648695,
                "861": 0.027688532136547428,
                "862": 0.02329627285440699,
                "863": -0.03132663832843069,
                "864": 0.026587648733361266,
                "865": -0.02836885238238365,
                "866": -0.0022129619907144743,
                "867": 0.01586792808171788,
                "868": -0.036266147113136075,
                "869": -0.0020352007390872914,
                "870": 0.022310953262261804,
                "871": 0.0011014629223549904,
                "872": 0.022402917910746802,
                "873": 0.0025044789978033457,
                "874": 0.01600944226771851,
                "875": -0.06056746657058576,
                "876": -0.8188059133309467,
                "877": 0.03521150192333642,
                "878": -0.016364245035438228,
                "879": -0.003052628598242574,
                "880": 0.019057097911534152,
                "881": 0.007167340266794048,
                "882": 0.07314474865316851,
                "883": 0.03024815598404286,
                "884": 0.006311815956773479,
                "885": -0.015701068933076573,
                "886": -0.022784130913781838,
                "887": -0.026163249118246093,
                "888": -0.01735003392603038,
                "889": 0.01780492503228807,
                "890": -0.03891031543780059,
                "891": 0.0066656461059360125,
                "892": 0.008138769624020867,
                "893": -0.019940157603059366,
                "894": -0.6328369318362618,
                "895": -0.002546834721989326,
                "896": -0.04620079115595169,
                "897": -0.01925280804559668,
                "898": -0.04160127795419674,
                "899": -0.019715279423982577,
                "900": 0.02936369263997559,
                "901": -0.12230331078505988,
                "902": 0.05048666343671138,
                "903": 0.038350329565496895,
                "904": 0.04736514080332678,
                "905": -0.043518053512728486,
                "906": 0.031006580234200314,
                "907": -0.012932943992599644,
                "908": -0.02850863836328334,
                "909": -0.03948926740609323,
                "910": -0.025855651445879993,
                "911": -0.03521923631368707,
                "912": -0.001372660213692916,
                "913": -0.01980138603812777,
                "914": -0.007296500187751544,
                "915": 0.04878007930525069,
                "916": -0.024580128704897026,
                "917": -0.047953996359637714,
                "918": -0.027114300864689786,
                "919": -0.02479069662890997,
                "920": 0.016136280464927807,
                "921": 0.029280657779048407,
                "922": -0.04439564237983822,
                "923": 0.03817699983067323,
                "924": -0.030756799383265476,
                "925": 0.05665514936270037,
                "926": -0.746665841345088,
                "927": 0.004822012121609178,
                "928": -0.030229824180520205,
                "929": 0.03254064415060001,
                "930": 0.011820261444707688,
                "931": -0.030253510622477203,
                "932": 0.010456468259158976,
                "933": 0.027763273911628097,
                "934": -0.027334954403113464,
                "935": 0.037469836827196075,
                "936": -0.022556268218081054,
                "937": -0.015371403282114815,
                "938": -0.04242471875513938,
                "939": 0.029565867624708014,
                "940": 0.027717749106685525,
                "941": 0.03050362671970976,
                "942": 0.02357777474487387,
                "943": -0.019314051940244253,
                "944": -0.9691812494504873,
                "945": -0.04213181590511297,
                "946": -0.0033178322864952587,
                "947": -0.020670789879060642,
                "948": 0.0452121238249673,
                "949": -0.03191875453409216,
                "950": 0.05044923444699502,
                "951": 0.38128715458164014,
                "952": 0.06102129605420638,
                "953": 0.031368904363577234,
                "954": 0.047824969569338203,
                "955": -0.04432742626898893,
                "956": 0.04891422357194356,
                "957": -0.004275371415649002,
                "958": -0.011876535938420339,
                "959": -0.037564161108020785,
                "960": -0.024611574523451987,
                "961": -0.042756927746607436,
                "962": 0.004593641787543058,
                "963": -0.023267915074683745,
                "964": -0.0014779492220347158,
                "965": 0.04861209943320478,
                "966": -0.03927982151334841,
                "967": -0.04770572138777989,
                "968": -0.027285636418083112,
                "969": -0.04474303939889068,
                "970": 0.03766965563967805,
                "971": 0.045494266360709454,
                "972": -0.04014158705484467,
                "973": 0.040296230002265496,
                "974": -0.04582116414659029,
                "975": 0.011056215722443741,
                "976": -0.7391390262224126,
                "977": 0.025173814127791242,
                "978": -0.04728200422743278,
                "979": 0.021625687702774267,
                "980": 0.016383200936089814,
                "981": -0.03371391877783032,
                "982": 0.012959018929070155,
                "983": 0.029309427685317153,
                "984": -0.07844954612981425,
                "985": 0.050613963869347675,
                "986": -0.02393062700253026,
                "987": -0.012282812838806025,
                "988": -0.03849104382621913,
                "989": 0.044045560108353164,
                "990": 0.02694668854105442,
                "991": 0.03890148607251307,
                "992": 0.01889604445583632,
                "993": -0.01935434580447935,
                "994": -0.7531020470358315,
                "995": -0.0387486993353604,
                "996": -0.028667607325229823,
                "997": -0.05643731357091619,
                "998": 0.051450346342139644,
                "999": -0.029417274082328585,
                "1000": 0.00013245320298565773,
                "1001": 0.480089671629059,
                "1002": -0.04042706238406608,
                "1003": -0.023650395937087152,
                "1004": -0.020806648171582332,
                "1005": -0.0019388668298292704,
                "1006": -0.0015229369419169478,
                "1007": 0.01653676360549041,
                "1008": 0.011566298398930492,
                "1009": 0.01441213063881146,
                "1010": -0.004962951482185221,
                "1011": 0.023223746896185213,
                "1012": 0.014467056682268819,
                "1013": -0.015788998379863882,
                "1014": 0.01924602103634811,
                "1015": -0.029076096346220548,
                "1016": 0.0016993877432878606,
                "1017": 0.021712789268175416,
                "1018": -0.016865947538994695,
                "1019": 0.004919409042111574,
                "1020": 0.013344341029552384,
                "1021": -0.006995089658338726,
                "1022": 0.024679712491072345,
                "1023": -0.006781432406805802,
                "1024": 0.02097469302172153,
                "1025": 0.025358264384250838,
                "1026": -0.7198336239559437,
                "1027": 0.02433688437888459,
                "1028": 0.0011627270903079331,
                "1029": -0.009094308538600254,
                "1030": 0.013171891671404291,
                "1031": 0.008130681108317285,
                "1032": 0.033871211387524434,
                "1033": 0.01563244812919048,
                "1034": 0.015467825632572638,
                "1035": -0.019585548799041636,
                "1036": -0.01075822653997228,
                "1037": -0.013526745024155597,
                "1038": 0.010716056628466709,
                "1039": 0.0028317693540723956,
                "1040": -0.03120989285817903,
                "1041": -0.0012341326453670168,
                "1042": 0.0021906124574540145,
                "1043": -0.009188862297324091,
                "1044": -0.9185729732227463,
                "1045": 0.009542325812655189,
                "1046": -0.030956169749990114,
                "1047": -0.004280782201333957,
                "1048": -0.03871039159181498,
                "1049": -0.005042276272131516,
                "1050": 0.09704477261207181,
                "1051": 0.629132327824808,
                "1052": 0.10422399898773553,
                "1053": 0.009640267675052572,
                "1054": 0.05702956283857792,
                "1055": -0.025176462266113978,
                "1056": 0.04732496113593928,
                "1057": 0.008506194308677818,
                "1058": 0.05031075509323024,
                "1059": -0.03776546677307577,
                "1060": -0.015120829526411299,
                "1061": -0.062401592712334475,
                "1062": 0.020407218783898975,
                "1063": -0.025862139056458375,
                "1064": -0.00382306533650154,
                "1065": 0.07558429695718082,
                "1066": -0.08056867210170385,
                "1067": -0.05575704530471763,
                "1068": 0.019800871696728697,
                "1069": -0.05529419062415547,
                "1070": 0.0724314936505219,
                "1071": 0.05633709673226263,
                "1072": -0.06619070637542193,
                "1073": 0.04499670206596226,
                "1074": -0.030687872529540017,
                "1075": 0.025230790107490787,
                "1076": -0.5483243968069157,
                "1077": -0.0020684285735004717,
                "1078": -0.07035135822951681,
                "1079": -0.020703867685802922,
                "1080": 0.004969028150778639,
                "1081": -0.0462379895540993,
                "1082": 0.10699464423746038,
                "1083": -0.011535667245805507,
                "1084": -0.20970380187573218,
                "1085": 0.09137975705806516,
                "1086": 0.0035196303145681265,
                "1087": 0.030037952733796506,
                "1088": -0.12904303897105607,
                "1089": 0.05348045354900989,
                "1090": -0.016502250946380526,
                "1091": 0.06815835253705403,
                "1092": -0.006096092165653369,
                "1093": 0.0008894032058568712,
                "1094": -0.6689886107665564,
                "1095": -0.022019099468276095,
                "1096": -0.0076606735345010335,
                "1097": -0.0987040909454865,
                "1098": 0.05946555069509953,
                "1099": -0.008378140078324622,
                "1100": 0.03277854209483532,
                "1101": 0.6020626685585154,
                "1102": 0.08299106929234464,
                "1103": 0.04494189710203255,
                "1104": 0.06696343714525507,
                "1105": -0.10740028376057317,
                "1106": 0.08813798075212936,
                "1107": -0.04816756000487883,
                "1108": -0.018128140870896998,
                "1109": -0.03879489002012869,
                "1110": -0.005428341435284471,
                "1111": -0.034098104132373026,
                "1112": -0.01382807082897171,
                "1113": -0.013895269462001272,
                "1114": -0.011763469572185043,
                "1115": 0.05433837810790495,
                "1116": 0.011224837984952468,
                "1117": -0.07381772393676775,
                "1118": -0.1102325686759715,
                "1119": -0.05464022705514951,
                "1120": -0.028280255030539117,
                "1121": 0.06105202492772218,
                "1122": -0.02073289056125389,
                "1123": 0.05257567164875869,
                "1124": -0.0980687162081725,
                "1125": -0.08539808815611968,
                "1126": -0.559092589908094,
                "1127": -0.04012632942915641,
                "1128": -0.05090030328119657,
                "1129": 0.051185425602170306,
                "1130": 0.026426358216365704,
                "1131": -0.005801808717423369,
                "1132": 0.10329925735223942,
                "1133": 0.10303287757834703,
                "1134": -0.05199898417033278,
                "1135": 0.0528769384271796,
                "1136": -0.09376384279888961,
                "1137": -0.059318418664884125,
                "1138": -0.11908455532106961,
                "1139": 0.052844630893024096,
                "1140": 0.05740660859141838,
                "1141": 0.00462935310224388,
                "1142": 0.006145643038822756,
                "1143": -0.043571564799119826,
                "1144": -0.6386317394087738,
                "1145": -0.08497320547142118,
                "1146": 0.02402689359673765,
                "1147": -0.049160784570563755,
                "1148": 0.0887635589298683,
                "1149": -0.05978879769843538,
                "1150": 0.05568139904247799,
                "1151": 0.2708364703263165,
                "1152": 0.07997958432468444,
                "1153": 0.03313867583330526,
                "1154": 0.063395603954506,
                "1155": -0.012566256843847282,
                "1156": 0.011013239003023562,
                "1157": -0.00250048102446444,
                "1158": -0.0009746173010118081,
                "1159": -0.054522386598036834,
                "1160": -0.020476411872777257,
                "1161": -0.06346953008887381,
                "1162": -0.00892069692225054,
                "1163": -0.008869280209761738,
                "1164": -0.019450356182599066,
                "1165": 0.0821554814353526,
                "1166": -0.05750675592574661,
                "1167": -0.05094981080211502,
                "1168": 0.03121915088125329,
                "1169": -0.025422493462926337,
                "1170": 0.04856252765250032,
                "1171": 0.03026396389540449,
                "1172": -0.07892272867533742,
                "1173": 0.049469583325863334,
                "1174": -0.007597703887999014,
                "1175": -0.017937111698197842,
                "1176": -0.8180802989857727,
                "1177": -0.005294202848920891,
                "1178": -0.03478357465989543,
                "1179": 0.0008092376516902317,
                "1180": -0.009949868514748,
                "1181": -0.04928767089199265,
                "1182": 0.03381637036174442,
                "1183": -0.030434868493228434,
                "1184": -0.07943988873571496,
                "1185": 0.06831212810373588,
                "1186": 0.021829790652976338,
                "1187": 0.03285266923285879,
                "1188": -0.08033663196095821,
                "1189": 0.024800389051124718,
                "1190": 0.009849949989706577,
                "1191": 0.056159008794195636,
                "1192": 0.009943932395651573,
                "1193": 0.003120030863864614,
                "1194": -0.12845465124901065,
                "1195": -0.016277840879563674,
                "1196": 0.015092745983102234,
                "1197": -0.021716585577163473,
                "1198": 0.04858179652190321,
                "1199": -0.005391670798863014
            }
        },
        "b2": {
            "n": 24,
            "d": 1,
            "w": {
                "0": 2.170305121828565,
                "1": 2.2936169227302834,
                "2": 1.9607483311926117,
                "3": 2.503466351396475,
                "4": 2.6210983289521725,
                "5": 2.6519266968233213,
                "6": 2.432498850090666,
                "7": 2.0406880514025487,
                "8": 1.9986665288240308,
                "9": 2.1012351995105814,
                "10": 2.0536369575022375,
                "11": 2.357762143658463,
                "12": 2.258683718496251,
                "13": 2.538893219583337,
                "14": 2.3263862821536287,
                "15": 2.167149653975252,
                "16": 1.9806305672437337,
                "17": 2.132240242630872,
                "18": 1.996195148470701,
                "19": 2.354908388166425,
                "20": 2.550344640022653,
                "21": 2.3440164664272234,
                "22": 2.271239674609892,
                "23": 1.656808545674052
            }
        }
    }
}