{
    "nh": 20,
    "ns": 2,
    "na": 24,
    "net": {
        "W1": {
            "n": 20,
            "d": 2,
            "w": {
                "0": 0.038236604752698626,
                "1": 0.07493243735270066,
                "2": 0.04051685183756192,
                "3": 0.27754757399881863,
                "4": -0.11254390530211171,
                "5": 15.77555099172516,
                "6": 0.05222614488903917,
                "7": 0.47034092283098267,
                "8": -0.0201226109704504,
                "9": -0.2222793785958402,
                "10": 1.8530849652790125,
                "11": 4.186519272857521,
                "12": -0.017082485635800497,
                "13": -0.15627052491042598,
                "14": -0.055726758510113376,
                "15": -0.2560412324741443,
                "16": 0.014833225802950966,
                "17": 0.1576947425884343,
                "18": 0.4323497315723989,
                "19": -4.039209837531264,
                "20": -0.004755371801804735,
                "21": 0.1355995130486223,
                "22": -0.013695919140822835,
                "23": -0.09406808098743333,
                "24": 0.01580115420470317,
                "25": -0.04503579795489603,
                "26": 0.7617816768340132,
                "27": 4.38106270871524,
                "28": 0.022554802809322868,
                "29": 0.21072138711658608,
                "30": -0.005470712832835847,
                "31": -0.10649217707526708,
                "32": -0.005435745226658078,
                "33": 0.06309478399987409,
                "34": 0.016428851915003033,
                "35": -0.026848610328977146,
                "36": -0.02045609210594912,
                "37": -0.24030407363605014,
                "38": 0.03596633806883374,
                "39": 0.306279830080808
            }
        },
        "b1": {
            "n": 20,
            "d": 1,
            "w": {
                "0": 0.001138896718256963,
                "1": -0.003305719969856363,
                "2": -0.6775888694887536,
                "3": -0.005719748417436758,
                "4": 0.003993252699245932,
                "5": 0.8346203586427096,
                "6": 0.002612154452897177,
                "7": 0.001658543955948284,
                "8": -0.002830128766060284,
                "9": -0.3799684711664176,
                "10": -0.0038431606347681785,
                "11": 0.0013428691700575089,
                "12": 0.002466727592138675,
                "13": -0.042846261744908666,
                "14": -0.003575036187676129,
                "15": 0.002357309754018529,
                "16": -0.0022287425377372824,
                "17": 0.002095057521466389,
                "18": 0.00436211221483035,
                "19": -0.004483088825228408
            }
        },
        "W2": {
            "n": 24,
            "d": 20,
            "w": {
                "0": 0.024116181933470836,
                "1": 0.0354495446697624,
                "2": -0.9127346942554166,
                "3": 0.04407794274326122,
                "4": -0.018974795629222465,
                "5": -0.03863693923514839,
                "6": -0.016281948582987142,
                "7": -0.04081737254571765,
                "8": 0.0142995428326765,
                "9": 0.10556226906063487,
                "10": 0.002189168060275922,
                "11": -0.010872181157055105,
                "12": 0.00721850262337206,
                "13": -0.18100125148561091,
                "14": 0.019437173032113723,
                "15": -0.0065119631029167705,
                "16": -0.0021792664201837593,
                "17": 0.009474057699510792,
                "18": -0.019909072677133776,
                "19": 0.03146142112491323,
                "20": -0.021234568113300243,
                "21": 0.006415167145941622,
                "22": -0.9201038508348002,
                "23": 0.019794559153255082,
                "24": -0.013098298043495432,
                "25": -0.194002705907138,
                "26": -0.006712654422230537,
                "27": 0.009567693762518443,
                "28": 0.00926926133288509,
                "29": 0.26444577486786874,
                "30": 0.024277465575613697,
                "31": -0.001622532131883941,
                "32": -0.019167398066372902,
                "33": -0.0012105022515385396,
                "34": 0.008652484808550975,
                "35": -0.009416133645608714,
                "36": 0.011241466849535694,
                "37": -0.016147722516069808,
                "38": -0.015898175467998755,
                "39": 0.011629856496165717,
                "40": -0.03692820291287668,
                "41": -0.016705975492930923,
                "42": -0.9268531190657846,
                "43": -0.011765216110952352,
                "44": -0.000053233999549871444,
                "45": -0.22290824634850476,
                "46": 0.0035671538894632465,
                "47": 0.037210781683782786,
                "48": -0.0003821311399881934,
                "49": 0.23958708801061263,
                "50": 0.02168501410604243,
                "51": 0.005797264013721725,
                "52": -0.023551969037017433,
                "53": 0.13187054197769812,
                "54": -0.00472517992543941,
                "55": -0.004681148572922918,
                "56": 0.012323633007818349,
                "57": -0.0216788548970959,
                "58": -0.002061506655839728,
                "59": -0.009348484892759903,
                "60": -0.0072201295464905954,
                "61": -0.03463028635526932,
                "62": -1.0443741802211448,
                "63": -0.058019989798305756,
                "64": 0.02828293316670165,
                "65": -0.5155950770634629,
                "66": 0.019745354603743114,
                "67": 0.03060823014919716,
                "68": -0.020136970507236788,
                "69": 0.3972837504666875,
                "70": -0.01896970115613966,
                "71": 0.011641589065020408,
                "72": 0.007354026444174896,
                "73": 0.47301508073939513,
                "74": -0.02643947247564645,
                "75": 0.013893121041948259,
                "76": -0.008625499017494272,
                "77": 0.004737972678322391,
                "78": 0.030738631446171824,
                "79": -0.038218298702520054,
                "80": -0.0036177881095503443,
                "81": -0.0015975023430962717,
                "82": -0.8721071391419697,
                "83": -0.0005229974992578754,
                "84": -0.00048090562321624375,
                "85": -0.7835978061514073,
                "86": 0.000109608028820343,
                "87": 0.0033682975063580056,
                "88": 0.00020871502919619076,
                "89": 0.5338610857025912,
                "90": 0.00215139828632522,
                "91": 0.00041465848365690406,
                "92": -0.0024822684337182746,
                "93": 0.5407598152489728,
                "94": 0.00021466389240076022,
                "95": -0.0007607468617492916,
                "96": 0.0018088573319824056,
                "97": -0.0024703164564888235,
                "98": -0.0006355019570713063,
                "99": -0.0002854420995660453,
                "100": -0.00012355465574763724,
                "101": 0.010493187880777077,
                "102": -0.9292093305928585,
                "103": 0.018404240375691314,
                "104": -0.009920280989914975,
                "105": -0.6458009713252727,
                "106": -0.006624663941837257,
                "107": -0.007702194444067258,
                "108": 0.007047757819982991,
                "109": 0.3268911073561897,
                "110": 0.008234374843429081,
                "111": -0.0037449579016011624,
                "112": -0.004271087796953883,
                "113": 0.3635333381401977,
                "114": 0.008925128815599268,
                "115": -0.005222520685256619,
                "116": 0.004133064484185579,
                "117": -0.0032974720203510534,
                "118": -0.010911671607614252,
                "119": 0.012604583664512184,
                "120": 0.024973295902681842,
                "121": 0.0460261106666136,
                "122": -0.8791246598822525,
                "123": 0.06934745585329324,
                "124": -0.030549190426760704,
                "125": -0.40055743489821444,
                "126": -0.02262142953284941,
                "127": -0.05164577540649322,
                "128": 0.022019519594189164,
                "129": 0.16680191423806504,
                "130": 0.011499792335968526,
                "131": -0.01544558156254838,
                "132": 0.0028573268804925425,
                "133": 0.004952690971997812,
                "134": 0.03060761472053395,
                "135": -0.012697807190294202,
                "136": 0.003499249606891975,
                "137": 0.005128156147237322,
                "138": -0.03268794345002303,
                "139": 0.046199087199285484,
                "140": 0.011541439517922409,
                "141": 0.027087430388668975,
                "142": -0.8804314683189459,
                "143": 0.044567207793246764,
                "144": -0.018984000681741775,
                "145": -0.10774958774924415,
                "146": -0.013356453777934091,
                "147": -0.028524441717796726,
                "148": 0.013415486220751102,
                "149": 0.05768858494224015,
                "150": 0.009265309458457709,
                "151": -0.008871271124176669,
                "152": -0.0005633969489362581,
                "153": -0.13526507134526758,
                "154": 0.018558701014802212,
                "155": -0.008159529197813414,
                "156": 0.003483783543028794,
                "157": 0.0009836828257312946,
                "158": -0.020652683365991076,
                "159": 0.028426037733317706,
                "160": 0.002511591063315399,
                "161": 0.019400102120468662,
                "162": -1.0287006103590512,
                "163": 0.03626039585909946,
                "164": -0.01658232516838769,
                "165": 0.09183499006007136,
                "166": -0.010974101156783319,
                "167": -0.016386359051493857,
                "168": 0.011563435244027061,
                "169": -0.029471694113909895,
                "170": 0.01193610659672235,
                "171": -0.006520083927444681,
                "172": -0.005169659333439923,
                "173": -0.21181065930256074,
                "174": 0.01538929872462339,
                "175": -0.008157056573611725,
                "176": 0.005850885386002528,
                "177": -0.003736833297196527,
                "178": -0.018269284181085355,
                "179": 0.022661316661249944,
                "180": -0.026014150521520344,
                "181": -0.019115314727251725,
                "182": -0.9474963709629559,
                "183": -0.01872616534839201,
                "184": 0.006361771668398965,
                "185": -0.10320309091017488,
                "186": 0.007085396081570979,
                "187": 0.03136405273446201,
                "188": -0.005076686462349567,
                "189": 0.15746755124741452,
                "190": 0.00936981006921861,
                "191": 0.00658024029172524,
                "192": -0.013676199689994548,
                "193": -0.05418428029086446,
                "194": -0.008809075652024718,
                "195": 0.00015224954804750023,
                "196": 0.0065334502826188525,
                "197": -0.013330248558233504,
                "198": 0.005631719115963477,
                "199": -0.014299035998320346,
                "200": -0.02317572080894743,
                "201": -0.010361283844670277,
                "202": -1.0183788230689954,
                "203": -0.0075462052311678195,
                "204": -0.0010660288369187848,
                "205": -0.0642794582576748,
                "206": 0.0013997334178602785,
                "207": 0.023486835925300292,
                "208": 0.0004971642925643007,
                "209": 0.25226763973279376,
                "210": 0.014033681020438003,
                "211": 0.00325653965324792,
                "212": -0.015242681550493693,
                "213": 0.040112998151389946,
                "214": -0.001819380356035087,
                "215": -0.003698535340793889,
                "216": 0.008544343077673934,
                "217": -0.014214823671486573,
                "218": -0.002194717076657956,
                "219": -0.005175670470540149,
                "220": -0.04349084275301204,
                "221": -0.03281524392519149,
                "222": -0.8852530491972895,
                "223": -0.02617465301333078,
                "224": 0.009007785098678759,
                "225": -0.5157567202737182,
                "226": 0.010890959830859403,
                "227": 0.05198928450083175,
                "228": -0.007777679753760759,
                "229": 0.43338001736853393,
                "230": 0.013791556312514858,
                "231": 0.010994630382629817,
                "232": -0.023323922101273927,
                "233": 0.3921324719412922,
                "234": -0.010837525096131263,
                "235": -0.0011566601470207652,
                "236": 0.014198588406350025,
                "237": -0.023985575095214026,
                "238": 0.008261628282594408,
                "239": -0.02150557439158374,
                "240": -0.020120176959817226,
                "241": -0.026899597604928726,
                "242": -0.902664459190164,
                "243": -0.037020263879329926,
                "244": 0.015150695002974748,
                "245": -0.920534999365728,
                "246": 0.012101957208902494,
                "247": 0.03341113735047262,
                "248": -0.011097395343053875,
                "249": 0.5237757396203941,
                "250": -0.0015395933477783564,
                "251": 0.008884039462147525,
                "252": -0.006330151529907264,
                "253": 0.6982206244715348,
                "254": -0.015856613670988663,
                "255": 0.0052487731807302545,
                "256": 0.0014045078151180119,
                "257": -0.007337563033994487,
                "258": 0.015870895616712868,
                "259": -0.024815537566485642,
                "260": 0.021241494278432457,
                "261": 0.03765853141408164,
                "262": -0.9131824123098412,
                "263": 0.05807930057179551,
                "264": -0.025096649414826196,
                "265": -0.575368814453716,
                "266": -0.018508029479479517,
                "267": -0.04326624452368318,
                "268": 0.01768484980450103,
                "269": 0.27623102195532495,
                "270": 0.008314551180034798,
                "271": -0.012576302234601952,
                "272": 0.0028132793198483927,
                "273": 0.2240864577611353,
                "274": 0.025411751602714,
                "275": -0.010354517929176061,
                "276": 0.002976449374973686,
                "277": 0.004323864245080797,
                "278": -0.02659630644475413,
                "279": 0.038225456242425786,
                "280": 0.026060804432823676,
                "281": 0.07906134802776776,
                "282": -0.9579462958559507,
                "283": 0.12932172926978802,
                "284": -0.061047688954358,
                "285": -0.3514077299488516,
                "286": -0.043426426501884836,
                "287": -0.07677015232517855,
                "288": 0.04357228575587631,
                "289": 0.20726535321930506,
                "290": 0.03471538707066523,
                "291": -0.026819719993314763,
                "292": -0.009201791501965453,
                "293": 0.009087092899931686,
                "294": 0.05871624357281946,
                "295": -0.028725113681530565,
                "296": 0.015654917903412766,
                "297": -0.004285035245381923,
                "298": -0.06582212582862644,
                "299": 0.08535903446900439,
                "300": 0.015042867553602292,
                "301": 0.021654966337828124,
                "302": -0.9596129363365002,
                "303": 0.03226554242569198,
                "304": -0.013017399414921365,
                "305": -0.22883700589770678,
                "306": -0.009836417484525375,
                "307": -0.02688279581973553,
                "308": 0.009319572299154132,
                "309": 0.00664283878950049,
                "310": 0.0022212182989672902,
                "311": -0.007243488534002686,
                "312": 0.004088286143832713,
                "313": -0.07557591225197387,
                "314": 0.013743509700592514,
                "315": -0.004748346847044827,
                "316": 0.0001929393498181985,
                "317": 0.004728053938728205,
                "318": -0.013753455577454398,
                "319": 0.02125544604483194,
                "320": -0.003513820337492797,
                "321": 0.01486538007900215,
                "322": -1.0173839227135164,
                "323": 0.029137899296572053,
                "324": -0.014788652008329534,
                "325": 0.09279042210992385,
                "326": -0.00935557633109282,
                "327": -0.0087927857052926,
                "328": 0.010468983623210143,
                "329": -0.057221992876800076,
                "330": 0.014479745637605531,
                "331": -0.005027806111438809,
                "332": -0.008403262588189592,
                "333": -0.23118363553639823,
                "334": 0.012902486882786455,
                "335": -0.008097061558534306,
                "336": 0.006953038576849615,
                "337": -0.006632337420198054,
                "338": -0.016650770381519457,
                "339": 0.018401280496273802,
                "340": -0.0062427702341679705,
                "341": 0.018119979185816107,
                "342": -0.9142929299431799,
                "343": 0.01698337306688289,
                "344": -0.02863054149303506,
                "345": -0.2123248013842432,
                "346": -0.02186040512019277,
                "347": -0.001833081343629826,
                "348": 0.02111698065077328,
                "349": 0.2958656925782844,
                "350": 0.02572972864493188,
                "351": -0.01054785324034394,
                "352": -0.01652109924099027,
                "353": 0.02733926933262732,
                "354": 0.02313255043128494,
                "355": -0.018251113495949482,
                "356": 0.013224139773627113,
                "357": -0.014341978603094108,
                "358": -0.028973863311497948,
                "359": 0.02365177962539961,
                "360": -0.031726608338798784,
                "361": -0.02394344056360146,
                "362": -0.9141066747673673,
                "363": -0.026220673524269628,
                "364": 0.008399543234290763,
                "365": -0.30419871605386417,
                "366": 0.008830381531043369,
                "367": 0.03891138433631844,
                "368": -0.006488258021473177,
                "369": 0.2594484958369965,
                "370": 0.011211818076244585,
                "371": 0.008194947901985201,
                "372": -0.016561677518546168,
                "373": 0.11884830120069413,
                "374": -0.01152344324319858,
                "375": 0.0003944334594961564,
                "376": 0.007478544063390781,
                "377": -0.01604858596583827,
                "378": 0.00764101034174439,
                "379": -0.01879430903721513,
                "380": -0.02740738025146359,
                "381": -0.042682834578210954,
                "382": -0.9285767377141024,
                "383": -0.06311636690031304,
                "384": 0.027078238855908328,
                "385": -0.650774274793924,
                "386": 0.020742197301945983,
                "387": 0.04996700451854422,
                "388": -0.019511963781755723,
                "389": 0.3763326605164846,
                "390": -0.006482857150592302,
                "391": 0.014412636463248165,
                "392": -0.006102123168957605,
                "393": 0.5154008661211962,
                "394": -0.02778719505411893,
                "395": 0.010546377910868697,
                "396": -0.0012291115927127335,
                "397": -0.007685990062463003,
                "398": 0.0285101220567321,
                "399": -0.04209954143264639,
                "400": -0.008463876796666766,
                "401": -0.01954651693713863,
                "402": -0.9277670840245873,
                "403": -0.030090589618021395,
                "404": 0.014128195444688612,
                "405": -0.9378299722704432,
                "406": 0.010285150824238054,
                "407": 0.019878496597487163,
                "408": -0.010236594821947135,
                "409": 0.47416807151461204,
                "410": -0.007180586563406469,
                "411": 0.006743163118780775,
                "412": 0.000572320128256281,
                "413": 0.646409579800835,
                "414": -0.013560180867169728,
                "415": 0.006265407510971771,
                "416": -0.002496268193935326,
                "417": -0.0006741728745867263,
                "418": 0.01525107419293207,
                "419": -0.020262756294520404,
                "420": 0.0014693174916301924,
                "421": 0.0175707269637338,
                "422": -0.9509843909026879,
                "423": 0.03052340402374618,
                "424": -0.015944462538523024,
                "425": -0.6798613010831287,
                "426": -0.010852265514023888,
                "427": -0.013884602086225547,
                "428": 0.011292838717368279,
                "429": 0.22633420624361814,
                "430": 0.011962845157464834,
                "431": -0.006209412353853782,
                "432": -0.005728100558638482,
                "433": 0.2978682262758402,
                "434": 0.014651072903761579,
                "435": -0.008190223073840744,
                "436": 0.006073230328159451,
                "437": -0.00431988462089434,
                "438": -0.017382598082823976,
                "439": 0.020684274519934962,
                "440": 0.058500730099468455,
                "441": 0.06343834967677282,
                "442": -0.8367530612922166,
                "443": 0.09224420116293716,
                "444": -0.031302042256910856,
                "445": -0.5213123538930077,
                "446": -0.026160134434367602,
                "447": -0.08965050882616209,
                "448": 0.022538742140499776,
                "449": 0.2794929596304848,
                "450": -0.009458230628370727,
                "451": -0.020134856560771373,
                "452": 0.024066705431344752,
                "453": 0.08896079709988074,
                "454": 0.03689765445674643,
                "455": -0.008486555107778479,
                "456": -0.006920848616692128,
                "457": 0.023854789529304206,
                "458": -0.03151978465654964,
                "459": 0.05795683386433167,
                "460": 0.06442984573393037,
                "461": 0.06240779678198458,
                "462": -0.9649119344033313,
                "463": 0.08705881314623723,
                "464": -0.025876827235151494,
                "465": -0.23240659061741603,
                "466": -0.022590256429405257,
                "467": -0.09268150695478267,
                "468": 0.018771329561253266,
                "469": 0.103859795458519,
                "470": -0.01592393288942565,
                "471": -0.019584942131860423,
                "472": 0.030336841544066108,
                "473": -0.08646212986175268,
                "474": 0.03188604891420682,
                "475": -0.004581477344257393,
                "476": -0.012060050698078983,
                "477": 0.03021992828185467,
                "478": -0.02586872087316276,
                "479": 0.053806948001507295
            }
        },
        "b2": {
            "n": 24,
            "d": 1,
            "w": {
                "0": 1.784141444410631,
                "1": 1.9394281198001455,
                "2": 1.867747547773082,
                "3": 2.111382934057822,
                "4": 2.2137008405144645,
                "5": 2.1587831763551586,
                "6": 2.022353844281754,
                "7": 1.7612611701549117,
                "8": 1.6718928920432772,
                "9": 1.8209925028748588,
                "10": 1.8779539961582619,
                "11": 2.041032520754134,
                "12": 2.280504717753463,
                "13": 2.1008881566870845,
                "14": 2.0052880717718313,
                "15": 1.8658199281982517,
                "16": 1.7066309417335281,
                "17": 1.9285473999128722,
                "18": 1.9704190004577011,
                "19": 2.1288257642781736,
                "20": 2.303432945609379,
                "21": 2.164043118953606,
                "22": 2.0839708963597325,
                "23": 1.9274561556816296
            }
        }
    }
}