{
    "nh": 6,
    "ns": 2,
    "na": 24,
    "net": {
        "W1": {
            "n": 6,
            "d": 2,
            "w": {
                "0": 1.317946817660083,
                "1": 7.826435530456682,
                "2": -0.20382569004189358,
                "3": -6.885223398102186,
                "4": -1.272517123121049,
                "5": 11.125136166974803,
                "6": 0.050259861112132466,
                "7": 0.2819071763642953,
                "8": 0.48992758708109907,
                "9": 15.473338345407496,
                "10": -0.0078110318948741205,
                "11": 0.4877808837339813
            }
        },
        "b1": {
            "n": 6,
            "d": 1,
            "w": {
                "0": 0.28044133581632813,
                "1": 0.392870703710781,
                "2": -0.08651917291712108,
                "3": -0.02294973410392955,
                "4": -1.1565855888310366,
                "5": -0.01337301735736172
            }
        },
        "W2": {
            "n": 24,
            "d": 6,
            "w": {
                "0": 0.25439341918505565,
                "1": 0.631099835939286,
                "2": -0.2373778955303454,
                "3": 0.009952891404073738,
                "4": -0.5480256894912452,
                "5": 0.11889027521793354,
                "6": 0.0809173451452446,
                "7": 0.581499703840294,
                "8": -0.33877254181050165,
                "9": 0.03447876527358349,
                "10": -0.5700342695803761,
                "11": 0.08904821009227791,
                "12": 0.1815671749455591,
                "13": 0.4881692073484728,
                "14": -0.5066360958210233,
                "15": -0.004977651522745013,
                "16": -0.5611090161361084,
                "17": -0.028372077535490536,
                "18": -0.41053164971661105,
                "19": 0.0881088498367511,
                "20": -0.7641196076220524,
                "21": -0.022842685094003615,
                "22": -0.4877278509448955,
                "23": -0.03337534344873978,
                "24": -0.6963412236401331,
                "25": -0.02617910738017292,
                "26": -0.8444434811508376,
                "27": -0.0072684418914331665,
                "28": -0.4312358320575813,
                "29": -0.012047011164396696,
                "30": -0.7987186598497521,
                "31": 0.02989588941655448,
                "32": -0.5955538634919054,
                "33": 0.0187645426102173,
                "34": -0.4971098233194179,
                "35": -0.007917690653323537,
                "36": -0.17681281213979225,
                "37": 0.3392410436797457,
                "38": -0.24327706658221487,
                "39": -0.06893744226033637,
                "40": -0.6970999669430381,
                "41": 0.015784221139825895,
                "42": -0.17606807240835612,
                "43": 0.5015323410244815,
                "44": -0.32051854232011134,
                "45": -0.009082935118106027,
                "46": -0.5303881126694031,
                "47": 0.04551673723749842,
                "48": 0.07004482120004299,
                "49": 0.38662514260746056,
                "50": -0.23903671435560003,
                "51": -0.046535872233153516,
                "52": -0.7073476091084534,
                "53": -0.07404800341152672,
                "54": 0.21201948580763053,
                "55": 0.41323159375445656,
                "56": -0.35643613408934177,
                "57": -0.02866397203522274,
                "58": -0.768325319738572,
                "59": -0.0551754082224016,
                "60": -0.043906363303658096,
                "61": 0.4107686314137765,
                "62": -0.4695964622700245,
                "63": -0.0023897307208288,
                "64": -0.5434118638795724,
                "65": -0.06218905562017273,
                "66": -0.3605225235932424,
                "67": 0.2787659760249385,
                "68": -0.6827170367601951,
                "69": -0.009614178757478433,
                "70": -0.3664627493783766,
                "71": 0.019590632906414485,
                "72": -0.8535685873811193,
                "73": 0.2321738435152631,
                "74": -0.6173100993848871,
                "75": 0.22988425919189814,
                "76": -0.18092631306907525,
                "77": 0.022145243655724393,
                "78": -0.8648499906987664,
                "79": 0.0750665834445515,
                "80": -0.7494507552513691,
                "81": 0.04114176583062404,
                "82": -0.31097011162410076,
                "83": 0.08158351250027668,
                "84": -0.4193142389985411,
                "85": 0.4224818302889593,
                "86": -0.34101193238912425,
                "87": 0.0004143613231135543,
                "88": -0.5064057072211732,
                "89": 0.05736316960565266,
                "90": -0.1438170669853075,
                "91": 0.4003494742663832,
                "92": -0.10779905888266053,
                "93": -0.0040817696257990956,
                "94": -0.8068191249636536,
                "95": -0.0214295592381341,
                "96": 0.09313240108467781,
                "97": 0.5733825617283458,
                "98": -0.22915036900102492,
                "99": -0.0020798849866185904,
                "100": -0.6234287794342359,
                "101": 0.11692483164794283,
                "102": -0.020477317952416817,
                "103": 0.5389473816013164,
                "104": -0.3448509965079404,
                "105": 0.027991838596846542,
                "106": -0.48680534273204334,
                "107": 0.021036619553322748,
                "108": -0.2695457010246844,
                "109": 0.37748112610073464,
                "110": -0.5687262906883532,
                "111": 0.07434840427475001,
                "112": -0.3951302905959417,
                "113": 0.018358923258905056,
                "114": -0.4764924710486176,
                "115": 0.19618345180272115,
                "116": -0.609551459732294,
                "117": 0.009076936319110685,
                "118": -0.4174576966796154,
                "119": -0.023576252330656754,
                "120": -0.7512539321927159,
                "121": -0.0028199614055604972,
                "122": -0.7883668456587253,
                "123": 0.03745341172310938,
                "124": -0.3392458530736477,
                "125": 0.01624596285298171,
                "126": -0.6600908303460442,
                "127": 0.12024615380729034,
                "128": -0.562951279518169,
                "129": -0.0323695505211417,
                "130": -0.44604890873037006,
                "131": -0.03732267912809645,
                "132": -0.34576627544390987,
                "133": 0.3485590140303696,
                "134": -0.3667201231785821,
                "135": -0.042159163355862714,
                "136": -0.4773200352979667,
                "137": -0.06203718816185117,
                "138": 0.02744895302874089,
                "139": 0.4015089900805256,
                "140": -0.2233701252038806,
                "141": -0.04999051977421005,
                "142": -0.7552558249893762,
                "143": -0.05044815421566555
            }
        },
        "b2": {
            "n": 24,
            "d": 1,
            "w": {
                "0": 1.565377475217575,
                "1": 1.7770859822590184,
                "2": 1.8133958110021122,
                "3": 2.148587355884955,
                "4": 2.3937259974115,
                "5": 2.3789933234571237,
                "6": 1.901987760858536,
                "7": 1.9458063496959128,
                "8": 1.7148944796823957,
                "9": 1.7563069159773175,
                "10": 1.909130507855318,
                "11": 2.11925200878809,
                "12": 2.2944043809704104,
                "13": 2.3883367493219634,
                "14": 2.1069504144383764,
                "15": 1.873882764574519,
                "16": 1.7499288724769668,
                "17": 1.7955808701992477,
                "18": 2.06525651195366,
                "19": 2.1364759930323656,
                "20": 2.2720415712087503,
                "21": 2.232815773114467,
                "22": 2.0366016456364133,
                "23": 1.8088967787361045
            }
        }
    }
}