{
    "nh": 50,
    "ns": 2,
    "na": 24,
    "net": {
        "W1": {
            "n": 50,
            "d": 2,
            "w": {
                "0": -0.007330531707705265,
                "1": -0.01537125209956733,
                "2": -0.03206349168290514,
                "3": -0.23150394477808514,
                "4": -0.014840916384469606,
                "5": 0.08623441730808698,
                "6": -0.010171701967005415,
                "7": -0.04182641106925916,
                "8": -0.016709249738758807,
                "9": -0.1178125494720947,
                "10": -0.021739040708682687,
                "11": -0.14776521234864243,
                "12": 0.012386417193890206,
                "13": 0.005247877633228054,
                "14": 0.006071391072241031,
                "15": -0.013673607940957445,
                "16": -0.0017016240784822857,
                "17": -0.06201547774135654,
                "18": 0.018030237645499075,
                "19": 0.06705815828105939,
                "20": 0.023533131287474557,
                "21": -0.0077203315043122426,
                "22": 0.0012006753511947213,
                "23": -0.10180908854942482,
                "24": -0.16287001886762154,
                "25": 2.531515162124777,
                "26": 0.010700306688538427,
                "27": 0.04922904618282461,
                "28": 0.004097252726722358,
                "29": 0.011650371334586724,
                "30": 0.01819115669352396,
                "31": -0.061550041299781505,
                "32": -0.011341968298231628,
                "33": 0.09807326235344863,
                "34": 0.008892490289977779,
                "35": 0.16110618307456276,
                "36": 0.03227253219576712,
                "37": 0.7417718011031645,
                "38": 0.016631766428344782,
                "39": 0.14427298407355182,
                "40": -0.005922420304221294,
                "41": -0.036870169790235316,
                "42": -0.009178477810752594,
                "43": -0.054886194280917934,
                "44": -0.01569348110866554,
                "45": -0.08587669522915466,
                "46": 0.010259576701051576,
                "47": -0.006019399525409751,
                "48": 0.003968817398095125,
                "49": 0.03569052244151761,
                "50": -0.006689961348110275,
                "51": 0.006018720968753347,
                "52": 0.010420398571996413,
                "53": 0.18088291748606553,
                "54": 0.0003066320015819405,
                "55": -0.04012186803625593,
                "56": 0.023535732295660437,
                "57": 0.09062011988874354,
                "58": -0.06851816522008206,
                "59": -0.3725131226779569,
                "60": 0.00003319453504672044,
                "61": -0.09175365794142305,
                "62": 0.016303720056346997,
                "63": 0.04157909849698286,
                "64": 0.010346826081659807,
                "65": 0.08724207353919489,
                "66": -0.007618028096166673,
                "67": -0.07719021500201897,
                "68": -0.0014686491452173354,
                "69": -0.0009108530900552664,
                "70": 0.7056156525689371,
                "71": 12.334316144350638,
                "72": -0.02943484326641888,
                "73": -0.1605947762374423,
                "74": -0.02083855131219762,
                "75": -0.05695331428386632,
                "76": -0.010943888767808677,
                "77": -0.0550178296048812,
                "78": 0.016702110381408317,
                "79": 0.26842104576061515,
                "80": 1.507619368028842,
                "81": -13.027509993605324,
                "82": 0.004352561498097981,
                "83": 0.03604950574123542,
                "84": -0.016215807257690222,
                "85": -0.013941752362617276,
                "86": -0.008498142098229832,
                "87": -0.11215809914841876,
                "88": -0.005982345077393533,
                "89": -0.04314858856185469,
                "90": 0.0049792418224644626,
                "91": -0.10390705195103801,
                "92": -0.004986218329671463,
                "93": -0.12756236523548878,
                "94": -0.015865916098526327,
                "95": -0.1105481918140589,
                "96": -0.0008551582385032772,
                "97": 0.11337201407749757,
                "98": -0.0043839597914896306,
                "99": -0.10238900958953596
            }
        },
        "b1": {
            "n": 50,
            "d": 1,
            "w": {
                "0": 0.003325224257904064,
                "1": 0.021128914893315216,
                "2": 0.0025409791977630217,
                "3": 0.00541073768346953,
                "4": 0.01063128376404944,
                "5": 0.015173887386203386,
                "6": -0.004300141297795767,
                "7": -0.002058172666529222,
                "8": 0.0035266940634878586,
                "9": -0.009056574738718244,
                "10": -0.009055731094422353,
                "11": 0.0031265041699811255,
                "12": -0.015022127543684876,
                "13": -0.0063675798010897015,
                "14": -0.0022976883479658523,
                "15": -0.00455568935391715,
                "16": 0.001076505366505285,
                "17": -0.010206840533983512,
                "18": -0.06220960974178949,
                "19": -0.011832795742012526,
                "20": 0.0030749479474161904,
                "21": 0.0061677544101609435,
                "22": 0.008985687802492958,
                "23": -0.0044446568766878265,
                "24": -0.003789902405735823,
                "25": 0.002537823330519848,
                "26": -0.010946440934743827,
                "27": 0.0018977371519115012,
                "28": -0.012928060863392708,
                "29": 0.04460803633803276,
                "30": 0.003186258558854721,
                "31": -0.007811285734739473,
                "32": -0.007337823302003205,
                "33": 0.005919653259123363,
                "34": 0.0007010899149951012,
                "35": -0.4980243236119882,
                "36": 0.017280859706709617,
                "37": 0.009357674994695846,
                "38": 0.007377371956395116,
                "39": -0.017320088292715283,
                "40": -0.10301895382965359,
                "41": -0.0030559999645958865,
                "42": 0.006780470139778785,
                "43": 0.007245477944158645,
                "44": 0.003674448272755499,
                "45": 0.0018818906820081331,
                "46": 0.006887818682191777,
                "47": 0.010468720465798186,
                "48": -0.004599677985672253,
                "49": 0.005955861756782836
            }
        },
        "W2": {
            "n": 24,
            "d": 50,
            "w": {
                "0": -0.0076117156372161685,
                "1": -0.0578584510820566,
                "2": 0.008247191147136068,
                "3": -0.011503355961453365,
                "4": -0.029498557731534435,
                "5": -0.05061574085456488,
                "6": -0.00041700270961585965,
                "7": 0.003967431719840516,
                "8": -0.018999326172249923,
                "9": 0.01971729800609144,
                "10": 0.01169618749707727,
                "11": -0.017133528522982774,
                "12": -0.02591097569928663,
                "13": 0.02272889018420736,
                "14": 0.007364958894778169,
                "15": -0.004693751485624274,
                "16": 0.011240638002064719,
                "17": 0.04601047936114106,
                "18": 0.16015603898634678,
                "19": 0.041321770639612364,
                "20": -0.00843148958217608,
                "21": -0.024477136629701763,
                "22": -0.023514926856473977,
                "23": 0.01472813283635198,
                "24": 0.02076015075552787,
                "25": -0.003346912251440574,
                "26": 0.039472341646119444,
                "27": -0.011188059547833536,
                "28": 0.037234875825390985,
                "29": -0.12528949348145374,
                "30": -0.01499623793831893,
                "31": 0.02001859337661374,
                "32": 0.020774196076254893,
                "33": -0.023133146954432592,
                "34": -0.003419621526869755,
                "35": -0.9167008690829279,
                "36": -0.04288625528991803,
                "37": -0.015490422247407525,
                "38": -0.027739731433161142,
                "39": 0.05575242740341742,
                "40": 0.4807027096150931,
                "41": 0.013576888851072989,
                "42": -0.012592660803837745,
                "43": -0.025815789960626515,
                "44": -0.007852582529420058,
                "45": -0.0167069630600075,
                "46": -0.027071855755197837,
                "47": -0.034783195816204544,
                "48": 0.032430187291404636,
                "49": -0.030056916809443078,
                "50": -0.0023079386298719066,
                "51": -0.03918359053623208,
                "52": 0.013814423014288896,
                "53": -0.009302115639687119,
                "54": -0.01978117794615028,
                "55": -0.06416615364078332,
                "56": -0.015698830134041702,
                "57": 0.009865779796621097,
                "58": -0.025578710711945916,
                "59": 0.008935893304785336,
                "60": 0.006593528816375123,
                "61": -0.013428717905833056,
                "62": 0.05125498843019575,
                "63": 0.027200154455163498,
                "64": 0.011538772019509464,
                "65": -0.018683652288965395,
                "66": 0.014496255801509716,
                "67": 0.05465776084037402,
                "68": 0.13750692840191195,
                "69": 0.03610275720201593,
                "70": 0.0032268453780913875,
                "71": -0.03366085713959511,
                "72": -0.01635917329879916,
                "73": 0.023793809732620443,
                "74": 0.038855774965304644,
                "75": -0.0012251086690734407,
                "76": 0.04359652996290153,
                "77": -0.014544102774026402,
                "78": 0.04085133898989511,
                "79": -0.12636863205958804,
                "80": -0.006359655987975389,
                "81": 0.013954139346268785,
                "82": 0.01338600221745548,
                "83": -0.03035161604160801,
                "84": -0.004229681082777895,
                "85": -0.8479401840414037,
                "86": -0.02300366888848145,
                "87": 0.008061452494574755,
                "88": -0.034003918742362,
                "89": 0.05034934922343377,
                "90": 0.5032400367793675,
                "91": 0.015268835937647373,
                "92": -0.0058277391966225665,
                "93": -0.02987758290709104,
                "94": -0.01031469773240227,
                "95": -0.016850524095377416,
                "96": -0.022321347648687245,
                "97": -0.03913707931557709,
                "98": 0.04492510634575128,
                "99": -0.03625492376069855,
                "100": -0.0019273294777746107,
                "101": -0.0513659088139415,
                "102": 0.03245100459286362,
                "103": -0.0071456674403658025,
                "104": -0.025427102573442252,
                "105": -0.040415517428043495,
                "106": -0.007208640645110762,
                "107": -0.004773009300263833,
                "108": -0.021207950026743083,
                "109": 0.010007567960506197,
                "110": -0.012299750095531891,
                "111": -0.030255318712335066,
                "112": -0.046648996531726855,
                "113": 0.014502814491201617,
                "114": 0.003178710929102547,
                "115": -0.02776891749365298,
                "116": 0.0332643211417414,
                "117": 0.04808342054446786,
                "118": 0.19320716171043026,
                "119": 0.03764075232917152,
                "120": -0.008578825908532005,
                "121": -0.017454703321550698,
                "122": -0.017159145392190746,
                "123": 0.00050026913976429,
                "124": 0.015618096649714574,
                "125": 0.004825588112681724,
                "126": 0.04636942216249925,
                "127": -0.013585857557205388,
                "128": 0.020611850424758063,
                "129": -0.08956406579894162,
                "130": -0.026104592035367306,
                "131": 0.006299438778716383,
                "132": 0.018689114992686776,
                "133": -0.023224245255597274,
                "134": -0.0006837612386535965,
                "135": -0.7792753831860543,
                "136": -0.031572043062807545,
                "137": -0.004236896955312379,
                "138": -0.018124428242591438,
                "139": 0.06772560503069786,
                "140": 0.5770007227547929,
                "141": 0.011768230041789689,
                "142": 0.0023163297842231645,
                "143": -0.030099810894407046,
                "144": -0.008614154144422702,
                "145": -0.03103184212211285,
                "146": -0.03562408064216945,
                "147": -0.027955257220949766,
                "148": 0.04127988216476875,
                "149": -0.03346913885540513,
                "150": -0.001715537767203598,
                "151": -0.04882591369525755,
                "152": 0.004590323652737251,
                "153": -0.010332340728576521,
                "154": -0.027023122306339267,
                "155": -0.0220287617641238,
                "156": 0.009086060656452583,
                "157": 0.0003738227294833004,
                "158": -0.008332482825385713,
                "159": 0.024890464806882746,
                "160": 0.007973918684508067,
                "161": -0.014653202231954881,
                "162": 0.09618749684819136,
                "163": 0.011471111166420796,
                "164": 0.000607035004532838,
                "165": 0.002292736219665505,
                "166": 0.007429302100835429,
                "167": 0.026324661498921653,
                "168": 0.09425109601769154,
                "169": 0.022951995887487236,
                "170": -0.00813648404033816,
                "171": -0.009517582646845501,
                "172": -0.018514497867027063,
                "173": -0.00009094052993051259,
                "174": 0.0022202766224488396,
                "175": -0.0017094169220911917,
                "176": 0.02919405852852002,
                "177": -0.002608100276673933,
                "178": 0.024610376918682064,
                "179": -0.06457844572242953,
                "180": -0.016266631178083565,
                "181": 0.011427698878699672,
                "182": 0.014877493677769603,
                "183": -0.012407805830347783,
                "184": 0.00042443430557546674,
                "185": -0.7841836678451262,
                "186": -0.040044216495836345,
                "187": -0.01828822830521743,
                "188": -0.01187918963643216,
                "189": 0.043376524399294285,
                "190": 0.6189240879005983,
                "191": 0.004669681906746578,
                "192": -0.00997897376370339,
                "193": -0.01564732730345955,
                "194": -0.007893349771692735,
                "195": -0.012248489975040798,
                "196": -0.021000105286184755,
                "197": -0.019333101344102904,
                "198": 0.014000294618727692,
                "199": -0.010517057032568973,
                "200": -0.00303042449736586,
                "201": -0.01260363186431898,
                "202": -0.0018658623698644778,
                "203": -0.002949994553112925,
                "204": -0.0065452251259689505,
                "205": -0.012102068158551884,
                "206": 0.00137219388026248,
                "207": 0.0025609930962439058,
                "208": -0.00410716265546841,
                "209": 0.005014844919015716,
                "210": 0.005934082986187173,
                "211": -0.0012178667468623636,
                "212": 0.17056983200683382,
                "213": 0.006092208937162389,
                "214": 0.00251385830621044,
                "215": 0.0025453029003599456,
                "216": -0.0012301378972536753,
                "217": 0.008465212425994057,
                "218": 0.03702725060523342,
                "219": 0.00922624283111777,
                "220": -0.0022161977764711804,
                "221": -0.006540906888827012,
                "222": -0.005622462394765217,
                "223": 0.0056652978815651895,
                "224": 0.004853683830383024,
                "225": -0.001748323132581781,
                "226": 0.006070214787966895,
                "227": -0.0018102107618680934,
                "228": 0.0099761463719412,
                "229": -0.03115221074979112,
                "230": -0.0012957431169900026,
                "231": 0.0066589786801111925,
                "232": 0.003361325120844655,
                "233": -0.004851040055237366,
                "234": -0.0015175184268414142,
                "235": -0.604636456199536,
                "236": -0.010932571045443342,
                "237": -0.005109923346111839,
                "238": -0.006826831520457099,
                "239": 0.00926687365095091,
                "240": 0.7169434107962954,
                "241": 0.00329905951115386,
                "242": -0.004932649225566967,
                "243": -0.004537699875874551,
                "244": -0.0017636940018878689,
                "245": -0.0011641158736106212,
                "246": -0.004163974162692201,
                "247": -0.008565230673896723,
                "248": 0.005794265221126222,
                "249": -0.005822769926665462,
                "250": 0.004103079814308506,
                "251": -0.0008613114464198321,
                "252": 0.015034674325690087,
                "253": 0.0035578098411014427,
                "254": -0.0029957430713705396,
                "255": 0.02286267200395324,
                "256": 0.0007197636786413448,
                "257": -0.00996066430771952,
                "258": 0.004037661072364434,
                "259": -0.003465197479115546,
                "260": -0.019952332358199213,
                "261": -0.008214379846252295,
                "262": 0.24592275463321922,
                "263": -0.014125748796993824,
                "264": -0.0054913373997276865,
                "265": -0.012558204410682826,
                "266": 0.015891248739874356,
                "267": -0.006612757017904614,
                "268": 0.043168309098659256,
                "269": -0.007188449897847328,
                "270": -0.0005449337883658831,
                "271": 0.01524465944963212,
                "272": 0.00024724619460727356,
                "273": -0.02372179003939136,
                "274": -0.018107897882134,
                "275": 0.005497720761239203,
                "276": 0.007468458387785869,
                "277": 0.0019459253613266553,
                "278": -0.018668341963599386,
                "279": 0.055408897669200104,
                "280": -0.010781953525722116,
                "281": -0.011718731732343652,
                "282": 0.0031126831943823264,
                "283": 0.009194504175733934,
                "284": 0.0034002941282526558,
                "285": -1.0418358048126843,
                "286": 0.001546362837390117,
                "287": -0.000109570963153493,
                "288": 0.02083510357106327,
                "289": 0.014309106129184273,
                "290": 0.483978097844569,
                "291": -0.007094859913117335,
                "292": 0.01209903437964137,
                "293": 0.000432335908584742,
                "294": 0.00018072777993406229,
                "295": -0.0149029254848177,
                "296": -0.005172578503398271,
                "297": 0.00879349858612386,
                "298": -0.009867660248528313,
                "299": 0.006822042435797003,
                "300": -0.0029728432060163053,
                "301": -0.02189055929046705,
                "302": 0.004786234386011847,
                "303": -0.00423468540143022,
                "304": -0.010515315858362123,
                "305": -0.021923451174606052,
                "306": -0.0025049965592432465,
                "307": 0.0037084780896900578,
                "308": -0.00852029936867594,
                "309": 0.005602597790351347,
                "310": 0.0045445865356634136,
                "311": -0.006799128920793647,
                "312": 0.25433856781470154,
                "313": 0.010017454425535003,
                "314": 0.003047336711082778,
                "315": -0.004035423873035084,
                "316": 0.004174117993892336,
                "317": 0.019730012098036674,
                "318": 0.0983076222087162,
                "319": 0.017034347836518315,
                "320": -0.0033435373341439297,
                "321": -0.01164068559535216,
                "322": -0.008945821666255448,
                "323": 0.006100006440408858,
                "324": 0.010676674489206317,
                "325": -0.0013659803881265079,
                "326": 0.015366899364735618,
                "327": -0.005457530255519915,
                "328": 0.014351307241702041,
                "329": -0.049849812628087936,
                "330": -0.005957922545371195,
                "331": 0.008773203546975191,
                "332": 0.006384013750411219,
                "333": -0.009908041573213695,
                "334": -0.001833893525363844,
                "335": -0.9603476245081505,
                "336": -0.016294966758465073,
                "337": -0.004397006202245408,
                "338": -0.01321869848302005,
                "339": 0.021507771433924933,
                "340": 0.5515151577645491,
                "341": 0.006364029192949067,
                "342": -0.004811773882615919,
                "343": -0.010518718835353167,
                "344": -0.0034068333749410493,
                "345": -0.006747952579812854,
                "346": -0.010801018472032157,
                "347": -0.01466653833313477,
                "348": 0.016999129210789082,
                "349": -0.013113015181890567,
                "350": -0.0032124645123484874,
                "351": -0.05645047784692447,
                "352": 0.017791271938077724,
                "353": -0.010428435056158496,
                "354": -0.027302290495025163,
                "355": -0.027487196020578072,
                "356": 0.005286590670742133,
                "357": -0.005385221666069755,
                "358": -0.008957225723674914,
                "359": 0.013550684369912556,
                "360": -0.0006192774088201877,
                "361": -0.021175014548263482,
                "362": 0.046619549778096396,
                "363": 0.0064065052055014525,
                "364": 0.002939808858081952,
                "365": -0.010937420731787467,
                "366": 0.02287325014391868,
                "367": 0.029636464649180183,
                "368": 0.15444851452343403,
                "369": 0.0325274800910443,
                "370": -0.009538176962301106,
                "371": -0.007009023289424915,
                "372": -0.021042730880398784,
                "373": -0.006693382251436596,
                "374": 0.0015068268774330459,
                "375": 0.00023420702342642698,
                "376": 0.04250322295829282,
                "377": -0.005817331136333193,
                "378": 0.014328541321882302,
                "379": -0.07875182987303646,
                "380": -0.022050962683439704,
                "381": 0.00814689519887626,
                "382": 0.018678052990132987,
                "383": -0.011982559963342606,
                "384": 0.0014965995043364165,
                "385": -0.9291220994854559,
                "386": -0.039410762521541735,
                "387": -0.01644347081085431,
                "388": -0.004091455507655504,
                "389": 0.06665005196629992,
                "390": 0.4500526807065102,
                "391": 0.005777415078511546,
                "392": -0.003310302632387003,
                "393": -0.02522012365286174,
                "394": -0.010877307327384615,
                "395": -0.024212583267666038,
                "396": -0.027954246981310077,
                "397": -0.02347503775582141,
                "398": 0.017549479421344275,
                "399": -0.01768657517419785,
                "400": -0.015466165695057295,
                "401": -0.059615734931330724,
                "402": 0.00498133692242966,
                "403": -0.014781036467626883,
                "404": -0.035922053397173075,
                "405": -0.0521520579567073,
                "406": 0.0072508530526948925,
                "407": 0.009660717939206425,
                "408": -0.021416865429805147,
                "409": 0.02755529594365026,
                "410": 0.010900033722063905,
                "411": -0.025024289432262526,
                "412": 0.010161836848816533,
                "413": 0.02017918197748187,
                "414": 0.0017963587090828268,
                "415": -0.004279051034941689,
                "416": 0.004208450507243517,
                "417": 0.04636083782980229,
                "418": 0.12697890085545607,
                "419": 0.0413941022900499,
                "420": -0.007959455843880988,
                "421": -0.02090586909169518,
                "422": -0.02321228858244003,
                "423": 0.008116915629206661,
                "424": 0.016989533080621923,
                "425": -0.005077193517881869,
                "426": 0.04016322921735179,
                "427": -0.014828850391756753,
                "428": 0.0380962214734009,
                "429": -0.11661245659393354,
                "430": -0.015411057331990698,
                "431": 0.02556423740314182,
                "432": 0.027152917550922473,
                "433": -0.026752619311150812,
                "434": -0.0030361171197067966,
                "435": -0.87694541110862,
                "436": -0.04946703228465167,
                "437": -0.02466148152852146,
                "438": -0.027341704076497768,
                "439": 0.054734053212366886,
                "440": 0.4714594158781197,
                "441": 0.011666153068030783,
                "442": -0.012562329168211565,
                "443": -0.028379798777870793,
                "444": -0.013073370628955428,
                "445": -0.016066864067660284,
                "446": -0.031142317256078092,
                "447": -0.03547956061203566,
                "448": 0.027078717053626678,
                "449": -0.02533488176919442,
                "450": -0.006971169474724539,
                "451": -0.052880907209995075,
                "452": 0.015192258808555568,
                "453": -0.009054577516701247,
                "454": -0.029528207407158648,
                "455": -0.040199247881794284,
                "456": -0.002602138322144683,
                "457": 0.0018595549542851754,
                "458": -0.018548880551206678,
                "459": 0.01415244007127846,
                "460": 0.0035068552552343433,
                "461": -0.018116953449005938,
                "462": -0.023565171677141724,
                "463": 0.01896244486370185,
                "464": 0.006027919188149498,
                "465": -0.013620488151233316,
                "466": 0.019055814712410492,
                "467": 0.04502182785002978,
                "468": 0.14855418988564167,
                "469": 0.03867489869107562,
                "470": -0.007631884096166878,
                "471": -0.020841780348998647,
                "472": -0.023229010108767243,
                "473": 0.005765372072527708,
                "474": 0.016692099027912164,
                "475": 0.0005986558537284055,
                "476": 0.04027462043368734,
                "477": -0.012721439080877655,
                "478": 0.028844141680885345,
                "479": -0.09364614224793479,
                "480": -0.01802387303175833,
                "481": 0.014799599813586214,
                "482": 0.019132596796134962,
                "483": -0.02025252199146793,
                "484": -0.0007194825289840715,
                "485": -0.8710326188993489,
                "486": -0.03831044108060964,
                "487": -0.014076143179912404,
                "488": -0.019210708425670936,
                "489": 0.05569512855943926,
                "490": 0.6091052271249202,
                "491": 0.009997519358928297,
                "492": -0.004192826706063044,
                "493": -0.024974939527565344,
                "494": -0.008795872252573497,
                "495": -0.022920227534900008,
                "496": -0.028227879250214704,
                "497": -0.030005095969396423,
                "498": 0.0331590676252647,
                "499": -0.029333499878617334,
                "500": -0.004076717975749863,
                "501": -0.035800416689124204,
                "502": 0.007335096893668973,
                "503": -0.007098210173777243,
                "504": -0.018577625789190227,
                "505": -0.022580727308822036,
                "506": 0.0016520862124645304,
                "507": 0.0030980929878867526,
                "508": -0.010017911539204177,
                "509": 0.012049692132079407,
                "510": 0.004422354976840876,
                "511": -0.01058075852160804,
                "512": 0.13346973859361555,
                "513": 0.010316747825395284,
                "514": 0.0024206184790759346,
                "515": -0.006007210752335786,
                "516": 0.00718275861422871,
                "517": 0.023236702278570023,
                "518": 0.10112988118256798,
                "519": 0.021014320235630508,
                "520": -0.0052954235937122205,
                "521": -0.009717817934337644,
                "522": -0.01569802206529101,
                "523": 0.0023490462502944046,
                "524": 0.007003553843577385,
                "525": -0.00046056546076744126,
                "526": 0.02438770153826974,
                "527": -0.005693218627303194,
                "528": 0.01878577685643634,
                "529": -0.05901681336729726,
                "530": -0.009842248082067113,
                "531": 0.009290059467292002,
                "532": 0.01230350406332656,
                "533": -0.010467872663544119,
                "534": -0.0015991640721398387,
                "535": -0.8857252287560432,
                "536": -0.027493327174373212,
                "537": -0.010128696434318142,
                "538": -0.01151178616790698,
                "539": 0.03552146814036671,
                "540": 0.6363484806717586,
                "541": 0.00513675538727796,
                "542": -0.006103017643453678,
                "543": -0.01438745964235458,
                "544": -0.006128402045253395,
                "545": -0.01081610051346104,
                "546": -0.01663884230285524,
                "547": -0.01840227190279581,
                "548": 0.016247710502255732,
                "549": -0.015293551515432078,
                "550": -0.0038717192554638003,
                "551": -0.024850972749439572,
                "552": 0.008116788727738045,
                "553": -0.004125263829338935,
                "554": -0.013370396844275996,
                "555": -0.022909947589632912,
                "556": -0.0009202895012914693,
                "557": 0.0013131636689649874,
                "558": -0.010135543925885835,
                "559": 0.006898670793443216,
                "560": 0.0005720034799723703,
                "561": -0.010618875165843575,
                "562": 0.12654949595685427,
                "563": 0.010035082388432813,
                "564": 0.003207629167216904,
                "565": -0.005859647088757886,
                "566": 0.008383709413450386,
                "567": 0.021155212254396996,
                "568": 0.0745232400819344,
                "569": 0.019051964944771592,
                "570": -0.006029096265665888,
                "571": -0.011404487477249758,
                "572": -0.010860327285859749,
                "573": 0.005476630966268987,
                "574": 0.008911602806948346,
                "575": 0.000501196151538681,
                "576": 0.01746240312838455,
                "577": -0.004443869436163498,
                "578": 0.01592512903486206,
                "579": -0.05115557378607562,
                "580": -0.009621510712915239,
                "581": 0.00723060145861419,
                "582": 0.005785343123838146,
                "583": -0.01273398645504484,
                "584": -0.0015551051621395262,
                "585": -0.7618613224875356,
                "586": -0.018728798681026185,
                "587": -0.006832105086406019,
                "588": -0.010228728974468675,
                "589": 0.025532569695141238,
                "590": 0.7078276037870175,
                "591": 0.0078047214928266126,
                "592": -0.0038464749103334357,
                "593": -0.015040362795395062,
                "594": -0.0035839543508785596,
                "595": -0.009921383772703728,
                "596": -0.013556415614125895,
                "597": -0.017290678868733214,
                "598": 0.01741887374108441,
                "599": -0.016406998450172208,
                "600": 0.0021608937257179372,
                "601": -0.035273566494478464,
                "602": 0.03753601158898901,
                "603": -0.011172245931058998,
                "604": -0.025815847498366885,
                "605": -0.006114343328897909,
                "606": 0.012443413840015918,
                "607": -0.012682964162507837,
                "608": 0.002146604032545399,
                "609": 0.003057747063818882,
                "610": -0.018845576195740173,
                "611": -0.0329182764436848,
                "612": 0.08297852553828254,
                "613": -0.010598660267935883,
                "614": -0.004788090729842716,
                "615": -0.03115363897480894,
                "616": 0.043944536701906525,
                "617": 0.015607938155412482,
                "618": 0.15553441377795357,
                "619": 0.02339519552945202,
                "620": -0.009560843483921652,
                "621": 0.012096819808466204,
                "622": -0.011419929861708596,
                "623": -0.033180649701810734,
                "624": -0.014598625170701629,
                "625": 0.007393205304435315,
                "626": 0.044250275195665434,
                "627": -0.006353150205322466,
                "628": -0.0149540425658174,
                "629": -0.010127217458941826,
                "630": -0.03376003945669502,
                "631": -0.007093539813717664,
                "632": 0.0124534871201372,
                "633": -0.002024994531057314,
                "634": 0.012789433995321104,
                "635": -0.7123381101079022,
                "636": -0.024380984754839914,
                "637": -0.013124816226408587,
                "638": 0.01867475883842311,
                "639": 0.06960796195698898,
                "640": 0.6509513009766585,
                "641": -0.002346599160523559,
                "642": 0.015033417138924051,
                "643": -0.027399701707870056,
                "644": -0.017967454371396217,
                "645": -0.032623350668973206,
                "646": -0.03365180702054824,
                "647": -0.009217014100348942,
                "648": 0.00771098425750773,
                "649": -0.00795452156407971,
                "650": -0.007033771806965775,
                "651": -0.06386083275524373,
                "652": 0.0017644260433781877,
                "653": -0.015255756757625244,
                "654": -0.03545197055309316,
                "655": -0.0007646064951653048,
                "656": 0.03087972284688534,
                "657": -0.010424393733874179,
                "658": 0.004196615995275977,
                "659": 0.0272973756339957,
                "660": 0.005993911968257896,
                "661": -0.014568489071010248,
                "662": 0.07525517243758487,
                "663": -0.007011095492366887,
                "664": -0.001203361335530037,
                "665": 0.008156782716459482,
                "666": 0.012608180944511943,
                "667": -0.00028753623732105324,
                "668": 0.13502507742042905,
                "669": 0.01791282757850191,
                "670": -0.013276477141599506,
                "671": 0.014060515217110396,
                "672": -0.028586893003362777,
                "673": -0.0223055291229348,
                "674": -0.025767675515466118,
                "675": -0.0006870084178793454,
                "676": 0.03409481591263252,
                "677": 0.005488636440218807,
                "678": 0.00967944291944282,
                "679": -0.03624519034900042,
                "680": -0.018901897205823512,
                "681": 0.004528010627013513,
                "682": 0.02610437451369699,
                "683": -0.0014487887981283593,
                "684": 0.006168659889160486,
                "685": -0.6803222395787992,
                "686": -0.04733170149148313,
                "687": -0.03741690384107812,
                "688": 0.02258442114782341,
                "689": 0.06345194697416102,
                "690": 0.5264124685646799,
                "691": -0.006580464183843771,
                "692": -0.0048959342966980205,
                "693": -0.019217084045812516,
                "694": -0.016844309588224856,
                "695": -0.01430993286771537,
                "696": -0.021585337965174388,
                "697": -0.011055500407054764,
                "698": -0.021153364134726807,
                "699": 0.003063344916912587,
                "700": 0.013588725305251513,
                "701": -0.04672034138715909,
                "702": 0.034801892085866634,
                "703": -0.0072712562490256285,
                "704": -0.008032273924352141,
                "705": 0.007914349605234707,
                "706": 0.007311952178780466,
                "707": -0.014406791744416484,
                "708": 0.0012733821709419576,
                "709": 0.010140022630601767,
                "710": -0.02385456445435968,
                "711": -0.028338735398935274,
                "712": 0.1232662106031385,
                "713": -0.01437421892972769,
                "714": -0.00876017612085279,
                "715": -0.01891625859481102,
                "716": 0.04121965854801318,
                "717": 0.005394339358105902,
                "718": 0.116161483318432,
                "719": 0.00700550565927216,
                "720": -0.00957474988306562,
                "721": 0.009774745571862614,
                "722": 0.0006305812265813684,
                "723": -0.029598373038112476,
                "724": -0.021844874341304686,
                "725": 0.01506394115928523,
                "726": 0.03277866554731076,
                "727": 0.0034544039851583915,
                "728": -0.015284149810859004,
                "729": -0.02397429747493859,
                "730": -0.026299600439806153,
                "731": -0.01282167320256965,
                "732": 0.020377788510162382,
                "733": -0.014992476564907004,
                "734": -0.0004980814486182557,
                "735": -0.93380790838666,
                "736": -0.013955318386532304,
                "737": -0.01122209742178991,
                "738": 0.016691746046130485,
                "739": 0.0655302662705143,
                "740": 0.414030479396866,
                "741": -0.0006321065020907456,
                "742": 0.011721783758532766,
                "743": -0.02318340869889993,
                "744": -0.007369553544404109,
                "745": -0.029166618471154718,
                "746": -0.018230048681406957,
                "747": 0.0033561612769548855,
                "748": 0.00805174284364297,
                "749": -0.0029798960562849573,
                "750": -0.01151890651815428,
                "751": -0.04969884382681868,
                "752": -0.01478396051241565,
                "753": -0.01352714145341706,
                "754": -0.02604687181830404,
                "755": -0.04565387732388149,
                "756": 0.008738505453519665,
                "757": 0.010835723964712484,
                "758": -0.011117247491079578,
                "759": 0.024149860455465744,
                "760": 0.030380854347877573,
                "761": -0.002752766870568417,
                "762": 0.10710618844417787,
                "763": 0.02278079909770234,
                "764": 0.008037177175279664,
                "765": 0.01708775561951173,
                "766": -0.01152792205275998,
                "767": 0.029445371794494753,
                "768": 0.09875696245245828,
                "769": 0.032755438319095706,
                "770": -0.007376877033056468,
                "771": -0.022604345976460827,
                "772": -0.02371086337131771,
                "773": 0.02118212176307555,
                "774": 0.017831601510875792,
                "775": -0.009193962607697606,
                "776": 0.022499001785694982,
                "777": -0.005649407144283333,
                "778": 0.04134282412514745,
                "779": -0.12334586103420192,
                "780": -0.0021448797777772663,
                "781": 0.026378167338414,
                "782": 0.016798227442606332,
                "783": -0.018037019723968505,
                "784": -0.0039039046087394895,
                "785": -0.9087149277817765,
                "786": -0.04311687639310533,
                "787": -0.023905982209836692,
                "788": -0.026967584077016167,
                "789": 0.031196421473175324,
                "790": 0.5722352314038337,
                "791": 0.011028832756392808,
                "792": -0.022234170171578544,
                "793": -0.01685375188900836,
                "794": -0.007721598860961495,
                "795": 0.0014100481022662214,
                "796": -0.013334088882618814,
                "797": -0.030787571510141803,
                "798": 0.015040451761182244,
                "799": -0.017973506251248956,
                "800": -0.0009564808695382102,
                "801": -0.05677088611399515,
                "802": 0.01940240658730609,
                "803": -0.005359041966839778,
                "804": -0.02554423852269049,
                "805": -0.02799970304735804,
                "806": -0.0025073346997688106,
                "807": -0.01321064957374856,
                "808": -0.0062372734863883105,
                "809": 0.025394121149733908,
                "810": -0.0027888826594795564,
                "811": -0.028792850550120094,
                "812": 0.00595453287743508,
                "813": 0.010834554709809605,
                "814": -0.0010614100919404228,
                "815": -0.012778021596177226,
                "816": 0.026336769618549048,
                "817": 0.04504966013394849,
                "818": 0.1411919197791258,
                "819": 0.03612405028212688,
                "820": -0.010054633374860627,
                "821": -0.008152344915669955,
                "822": -0.022539280456025323,
                "823": 0.0018535442026519282,
                "824": 0.00921399682021939,
                "825": 0.003047236723532421,
                "826": 0.04859316775249337,
                "827": -0.006223529370670366,
                "828": 0.022390672442440578,
                "829": -0.09331625642391685,
                "830": -0.018239918202287923,
                "831": 0.00963407814327534,
                "832": 0.025881177987480308,
                "833": -0.020288940532994307,
                "834": 0.00002550109336324957,
                "835": -0.8225678664861029,
                "836": -0.03523648918600722,
                "837": -0.010763354777678383,
                "838": -0.011030925935877725,
                "839": 0.05923973545861581,
                "840": 0.5083064652273304,
                "841": 0.0107788503050455,
                "842": -0.006467439217745122,
                "843": -0.025733253860890513,
                "844": -0.009886656943553928,
                "845": -0.023550796618744152,
                "846": -0.03043326510932621,
                "847": -0.024412867508999563,
                "848": 0.027518239088019453,
                "849": -0.028248652666248163,
                "850": -0.00898994313241734,
                "851": -0.06035435859818102,
                "852": 0.003432728511260941,
                "853": -0.009543237858168076,
                "854": -0.03516208173160251,
                "855": -0.04654922199018275,
                "856": -0.00022690068652707614,
                "857": -0.0027982332720155817,
                "858": -0.010485036242503876,
                "859": 0.018171509790642408,
                "860": 0.023219450605278576,
                "861": -0.01485235207509107,
                "862": 0.047583621930526426,
                "863": 0.016475088504454394,
                "864": 0.0073213542440580745,
                "865": 0.006308083746869011,
                "866": 0.001143319666730732,
                "867": 0.03702862203640849,
                "868": 0.14832442138059165,
                "869": 0.03468024402581925,
                "870": -0.009588824125357706,
                "871": -0.01741242812306465,
                "872": -0.037098220182223376,
                "873": 0.0027242177773027293,
                "874": 0.012552743374042958,
                "875": -0.00900380852413046,
                "876": 0.03660386246444313,
                "877": -0.012113943130013311,
                "878": 0.03432029083256328,
                "879": -0.09978852887161305,
                "880": -0.02030339739866066,
                "881": 0.01883302151289263,
                "882": 0.02375172857759716,
                "883": -0.011924931096600068,
                "884": 0.0020255881443905182,
                "885": -0.8861929772577315,
                "886": -0.05719210674417452,
                "887": -0.026291554153801962,
                "888": -0.022700006712021575,
                "889": 0.05097722511094507,
                "890": 0.5240041342494144,
                "891": 0.00923241786029133,
                "892": -0.01597158804190389,
                "893": -0.02149293629140676,
                "894": -0.0086533405374623,
                "895": -0.01677400991628629,
                "896": -0.029799868500978308,
                "897": -0.032084914220330454,
                "898": 0.020797899295204637,
                "899": -0.02511528861118984,
                "900": -0.004685298848624865,
                "901": -0.061617456597756234,
                "902": 0.017702392491680798,
                "903": -0.011146384915493118,
                "904": -0.03189908160159079,
                "905": -0.036119276012738885,
                "906": 0.001989398653383055,
                "907": -0.0015749575633677868,
                "908": -0.013892749447756819,
                "909": 0.01599831088816444,
                "910": 0.0016354848947906164,
                "911": -0.020024348870371026,
                "912": -0.012083315969881308,
                "913": 0.011653853699551523,
                "914": 0.005577198377326896,
                "915": -0.008801651294351896,
                "916": 0.02348798935920986,
                "917": 0.03848979053616534,
                "918": 0.15049586459926,
                "919": 0.04215146268587465,
                "920": -0.011600608030820152,
                "921": -0.016404135748408842,
                "922": -0.024044989745814864,
                "923": -0.0023120274685828764,
                "924": 0.004100755960409975,
                "925": -0.00177166211365655,
                "926": 0.04653088770754903,
                "927": -0.007492621425669145,
                "928": 0.02055819064584562,
                "929": -0.09782759121409186,
                "930": -0.02166781917175084,
                "931": 0.018433219372346283,
                "932": 0.02140420018788267,
                "933": -0.013355879800980075,
                "934": -0.004666232711503251,
                "935": -0.8456552362746901,
                "936": -0.04692016690669982,
                "937": -0.01984940034823844,
                "938": -0.010794376002216905,
                "939": 0.0643595879988332,
                "940": 0.6430420236493457,
                "941": 0.010870312886785154,
                "942": -0.008399007623220144,
                "943": -0.02667352528833774,
                "944": -0.00916345797617562,
                "945": -0.029806242588395936,
                "946": -0.026623949686681785,
                "947": -0.03323148638886502,
                "948": 0.02381486252580573,
                "949": -0.02156267442454648,
                "950": -0.004106485744616593,
                "951": -0.03556506996951532,
                "952": 0.022660881361330886,
                "953": -0.00590252278018119,
                "954": -0.022084774503758592,
                "955": -0.02070690778122168,
                "956": -0.0013529178290503743,
                "957": -0.003520722580339418,
                "958": -0.0116983560202806,
                "959": 0.005440413130038408,
                "960": -0.007847531417666361,
                "961": -0.020412826483109183,
                "962": 0.06605344719925718,
                "963": 0.005980890692177061,
                "964": 0.001174871513217957,
                "965": -0.018567216606382754,
                "966": 0.022400430785132243,
                "967": 0.026889873259988234,
                "968": 0.11537328539459679,
                "969": 0.024773399343082238,
                "970": -0.007938199416761684,
                "971": -0.007387236125385318,
                "972": -0.018410600942701045,
                "973": -0.00913536998580562,
                "974": 0.0028692065900170318,
                "975": 0.002101511782155643,
                "976": 0.03300676566506479,
                "977": -0.00825577400451162,
                "978": 0.010166980844702663,
                "979": -0.035630723021903135,
                "980": -0.02017592128401203,
                "981": 0.004132452475413831,
                "982": 0.012271030329363245,
                "983": -0.009526972926456115,
                "984": 0.0017342608897599342,
                "985": -0.710216989146419,
                "986": -0.026913879573001894,
                "987": -0.009725307032289727,
                "988": -0.003946332575856614,
                "989": 0.045192358185849726,
                "990": 0.6349184729589822,
                "991": 0.005480574884582302,
                "992": 0.0020472033761340797,
                "993": -0.02156626146515248,
                "994": -0.008881574171441897,
                "995": -0.02374212857208327,
                "996": -0.024023445573264218,
                "997": -0.018957270177137643,
                "998": 0.02076098105812893,
                "999": -0.017906772624916332,
                "1000": 0.0002470649369203001,
                "1001": -0.01837290775036719,
                "1002": 0.012723228891349274,
                "1003": -0.002055686582389807,
                "1004": -0.00836651705365987,
                "1005": -0.013281641838511488,
                "1006": -0.002681022103843658,
                "1007": -0.002878999557453138,
                "1008": -0.00740532905131303,
                "1009": 0.0030932008753385633,
                "1010": -0.0060588145918508375,
                "1011": -0.011046861101716907,
                "1012": 0.21119417734079826,
                "1013": 0.003913662287803461,
                "1014": 0.0011589329357122031,
                "1015": -0.01043594547039629,
                "1016": 0.012916089678746346,
                "1017": 0.01600355445874234,
                "1018": 0.07794604698417376,
                "1019": 0.012524826584488143,
                "1020": -0.0030497971607848515,
                "1021": -0.005102135324007005,
                "1022": -0.005064962300201504,
                "1023": -0.0007851989471830039,
                "1024": 0.004400019630004338,
                "1025": 0.001995066544505086,
                "1026": 0.016245977927910438,
                "1027": -0.004531758825454655,
                "1028": 0.0055471049770443835,
                "1029": -0.02918068310542613,
                "1030": -0.010012127356402445,
                "1031": 0.001406126405074338,
                "1032": 0.007020476712746127,
                "1033": -0.007636640396043354,
                "1034": -0.0005840775173410392,
                "1035": -0.7131910380684398,
                "1036": -0.010664344664285619,
                "1037": -0.00046843887258005807,
                "1038": -0.005442953349663929,
                "1039": 0.025455983467783213,
                "1040": 0.752820741596003,
                "1041": 0.0037973589883753354,
                "1042": 0.001548665502474165,
                "1043": -0.009846996047570803,
                "1044": -0.002562914693414204,
                "1045": -0.011816405068421743,
                "1046": -0.01318196874037419,
                "1047": -0.009059046893028729,
                "1048": 0.014137396296361442,
                "1049": -0.011567179314081688,
                "1050": 0.0010774319798664079,
                "1051": -0.01263902017752105,
                "1052": 0.021762923809328056,
                "1053": 0.00015811919284440263,
                "1054": -0.003375496436239694,
                "1055": -0.0033434498678444665,
                "1056": -0.0003245126380166746,
                "1057": -0.01145246545029028,
                "1058": -0.006258596474186484,
                "1059": -0.0010216128981211,
                "1060": -0.016012727013934264,
                "1061": -0.015527916862939023,
                "1062": 0.23061365092477765,
                "1063": -0.0067960448281078455,
                "1064": -0.000670875502770905,
                "1065": -0.015470840283863063,
                "1066": 0.021522569860493328,
                "1067": 0.006145366652639282,
                "1068": 0.08748085608335306,
                "1069": 0.004332845483311384,
                "1070": -0.00009546410513163812,
                "1071": 0.002624166467826579,
                "1072": 0.002640933449996605,
                "1073": -0.00977867335177204,
                "1074": -0.006845562563063489,
                "1075": 0.006270340877045397,
                "1076": 0.015819715277712827,
                "1077": -0.0041867345655298635,
                "1078": -0.010261477072174917,
                "1079": -0.010442209893524693,
                "1080": -0.011391396856218643,
                "1081": -0.005483424648859129,
                "1082": 0.004941033866086336,
                "1083": -0.003966954453688483,
                "1084": -0.00048624721027399346,
                "1085": -0.802129414159688,
                "1086": -0.008047792976090026,
                "1087": 0.00364949995579284,
                "1088": 0.007965625184529186,
                "1089": 0.03172146576670937,
                "1090": 0.7077850968886291,
                "1091": -0.0015638791066845076,
                "1092": 0.009038903880124708,
                "1093": -0.0067633209188988535,
                "1094": -0.0075941144776523655,
                "1095": -0.01931824735458724,
                "1096": -0.015116492665601975,
                "1097": -0.0011136865709525732,
                "1098": 0.009720484728357692,
                "1099": -0.004133029412073364,
                "1100": 0.000861101384332379,
                "1101": -0.03130167683634832,
                "1102": 0.0007314014794282177,
                "1103": -0.009097480382969798,
                "1104": -0.01903750664980612,
                "1105": -0.002339259750175646,
                "1106": 0.016553370329884163,
                "1107": -0.005190083237191979,
                "1108": -0.0006322322360985813,
                "1109": 0.023306625907123086,
                "1110": 0.004877046204834674,
                "1111": -0.009658925239514792,
                "1112": 0.22215108839569755,
                "1113": 0.000822062415119516,
                "1114": -0.002229353744479249,
                "1115": 0.006500359895225347,
                "1116": 0.007954903927078625,
                "1117": 0.006159310976766893,
                "1118": 0.06915704701157882,
                "1119": 0.007288381223214454,
                "1120": -0.0032701373826198006,
                "1121": 0.0036344746839961505,
                "1122": -0.0065546650619759846,
                "1123": -0.0034957552221764137,
                "1124": -0.011566907096425633,
                "1125": 0.0028787982358287126,
                "1126": 0.01744558963651306,
                "1127": 0.0007549294124070653,
                "1128": 0.011854356465359102,
                "1129": -0.030917425409582026,
                "1130": -0.010011924604867955,
                "1131": 0.0020712145833104664,
                "1132": 0.017078026533450166,
                "1133": -0.003709800831477527,
                "1134": 0.0009465352319024873,
                "1135": -0.9874496369467866,
                "1136": -0.025965764641761244,
                "1137": -0.018095844800554255,
                "1138": 0.0003787385380707066,
                "1139": 0.03630083527662885,
                "1140": 0.48833836595356095,
                "1141": -0.002643427293005254,
                "1142": -0.00534122415356412,
                "1143": -0.0060955864066622074,
                "1144": -0.002548640977680954,
                "1145": -0.007590222641257771,
                "1146": -0.012287556740382087,
                "1147": -0.004538484675995646,
                "1148": -0.008274674762728676,
                "1149": -0.0008149185067134927,
                "1150": -0.006399019729947706,
                "1151": -0.048782771098740456,
                "1152": 0.03795340998424353,
                "1153": -0.01090024031503005,
                "1154": -0.02296105374230483,
                "1155": -0.04026566138043974,
                "1156": -0.0008512441250945092,
                "1157": -0.010179167020356933,
                "1158": -0.025139289921399955,
                "1159": 0.003241132749353881,
                "1160": -0.017679283827350196,
                "1161": -0.036770802872281926,
                "1162": 0.048457691968502206,
                "1163": 0.01230899543249689,
                "1164": 0.0017337083847068933,
                "1165": -0.030731484326440402,
                "1166": 0.03751140760832214,
                "1167": 0.0402149487818453,
                "1168": 0.15838924401984003,
                "1169": 0.03896362147335866,
                "1170": -0.012439177259401869,
                "1171": -0.012060861722953366,
                "1172": -0.017390252538836276,
                "1173": 0.0007345837337934312,
                "1174": 0.01096328090322712,
                "1175": 0.001209350445425235,
                "1176": 0.04553378398964837,
                "1177": -0.01479367291246157,
                "1178": 0.017257004216128993,
                "1179": -0.09004247288159638,
                "1180": -0.02913430189167024,
                "1181": -0.0010755787215486132,
                "1182": 0.022498698482319873,
                "1183": -0.018166200792489765,
                "1184": 0.0018094797982258232,
                "1185": -0.942737692028892,
                "1186": -0.02351015808635649,
                "1187": -0.0050007185854501575,
                "1188": -0.01965770233127885,
                "1189": 0.0706917585852929,
                "1190": 0.5141555801223453,
                "1191": 0.010934633521005198,
                "1192": 0.0036244503970040646,
                "1193": -0.035012430152441654,
                "1194": -0.0075737200011978,
                "1195": -0.02758498690709556,
                "1196": -0.03826624601916621,
                "1197": -0.021675218804065623,
                "1198": 0.03537140711721379,
                "1199": -0.030652578668535657
            }
        },
        "b2": {
            "n": 24,
            "d": 1,
            "w": {
                "0": 1.7922201857822055,
                "1": 1.7089515299338027,
                "2": 1.7354947300197692,
                "3": 1.73792035457797,
                "4": 1.623173678807926,
                "5": 1.7989767160206305,
                "6": 1.7407971049649105,
                "7": 1.7287337259085052,
                "8": 1.7136444693582307,
                "9": 1.8576516063672295,
                "10": 1.8287361722788338,
                "11": 1.7911458879742073,
                "12": 1.7081223895437865,
                "13": 1.5650410581871324,
                "14": 1.6616758426658162,
                "15": 1.775049643611294,
                "16": 1.7292349103816673,
                "17": 1.7500193772868913,
                "18": 1.8542501494944648,
                "19": 1.6947386045410715,
                "20": 1.7193194749542022,
                "21": 1.7501960130815255,
                "22": 1.71683452705372,
                "23": 1.7745489340201483
            }
        }
    }
}