{
    "nh": 7,
    "ns": 3,
    "na": 24,
    "net": {
        "W1": {
            "n": 7,
            "d": 3,
            "w": {
                "0": -0.011278985938225773,
                "1": 0.0030654767508302466,
                "2": 0.015136334713189174,
                "3": -0.008574747575975157,
                "4": -0.0032176402192110832,
                "5": 0.007048414082612864,
                "6": -0.007143943150223547,
                "7": -0.003960113845349675,
                "8": 0.004658211556770406,
                "9": -0.000810624484330786,
                "10": -0.02222436671309669,
                "11": -0.0026683659677718156,
                "12": 0.012131350144160558,
                "13": -0.019880165727300794,
                "14": -0.014188967579767045,
                "15": 0.003840408222771142,
                "16": -0.018955881855014612,
                "17": 0.001276820196857023,
                "18": 0.023835613734741936,
                "19": -0.011455762028229684,
                "20": -0.014494069080094492
            }
        },
        "b1": {
            "n": 7,
            "d": 1,
            "w": {
                "0": 0.00011839504296558622,
                "1": 0.0006309165038727032,
                "2": 0.0009215403727954775,
                "3": -0.001434143772692761,
                "4": 0.00318764247561281,
                "5": -0.0018487195969835654,
                "6": 0.006757565125671364
            }
        },
        "W2": {
            "n": 24,
            "d": 7,
            "w": {
                "0": 0.0020296561919333545,
                "1": 0.0027755687379602597,
                "2": -0.014604241947233995,
                "3": 0.010290013533253742,
                "4": -0.0014344251863905935,
                "5": 0.016370464661986425,
                "6": -0.0003341969096556804,
                "7": 0.008620623312874496,
                "8": 0.009868601188402678,
                "9": -0.0040927561775753445,
                "10": -0.011474851467940247,
                "11": -0.00811062450596871,
                "12": -0.001673198994086426,
                "13": 0.01657024235686271,
                "14": 0.004595912927677822,
                "15": -0.0032666196467431943,
                "16": 0.004793891629649661,
                "17": 0.012980268108326087,
                "18": 0.014636863639256372,
                "19": -0.0029436200458349032,
                "20": -0.001281083531110374,
                "21": -0.0028898468889764933,
                "22": -0.0022013116075934804,
                "23": -0.00112379782910444,
                "24": 0.0013041679179644622,
                "25": 0.018473185962637164,
                "26": 0.005622093560176601,
                "27": -0.012739306300001323,
                "28": 0.024481256267078165,
                "29": 0.0024350866905616395,
                "30": -0.013803321518338952,
                "31": -0.004072583799543218,
                "32": -0.004432476038758927,
                "33": -0.0036451463487098667,
                "34": 0.016633394487626792,
                "35": -0.006969460945669966,
                "36": 0.010607134799981212,
                "37": -0.0014396379478137785,
                "38": 0.012266573357126472,
                "39": -0.0009717842979756245,
                "40": 0.0012408819623491024,
                "41": -0.006155214398711956,
                "42": -0.011615637506134917,
                "43": 0.0022977120716831515,
                "44": 0.010081797395080581,
                "45": 0.00024914679186582064,
                "46": -0.0042878225360005705,
                "47": 0.011643674722992887,
                "48": 0.005070308270208336,
                "49": 0.010330775161883929,
                "50": -0.01604510694488756,
                "51": -0.0010273883546806492,
                "52": -0.0010475944578597189,
                "53": -0.020529942428570994,
                "54": 0.0009479566207476802,
                "55": 0.008887274495712614,
                "56": 0.007579835311773103,
                "57": -0.005980990204777233,
                "58": 0.0009342252458327933,
                "59": -0.0019425575154809103,
                "60": 0.008666436045817348,
                "61": -0.009575596825755452,
                "62": 0.005335562435326208,
                "63": -0.02090814116062617,
                "64": 0.0000748805097965141,
                "65": -0.009516480925884101,
                "66": 0.010266663231100898,
                "67": -0.009544313057221743,
                "68": 0.008867231888155542,
                "69": 0.026506179591273785,
                "70": -0.0090991936008026,
                "71": 0.007958514196244847,
                "72": -0.004264486478304037,
                "73": 0.004392091498863414,
                "74": 0.01780173065353779,
                "75": -0.0127636732935115,
                "76": 0.004593629947868539,
                "77": -0.00621344616683223,
                "78": -0.00339655129328789,
                "79": 0.0072384620835575005,
                "80": 0.0017085642125716487,
                "81": -0.0006574081288726537,
                "82": 0.01283411749274169,
                "83": 0.010074825041787144,
                "84": 0.010708122053542816,
                "85": -0.010094214745940145,
                "86": -0.00521064985675106,
                "87": 0.0015476970361930399,
                "88": 0.004051111805557868,
                "89": -0.02731197702088172,
                "90": -0.011550089139013196,
                "91": 0.004511677310396537,
                "92": 0.005388628777963305,
                "93": 0.0035056525071783013,
                "94": -0.02460128765262905,
                "95": -0.012807300731587694,
                "96": -0.002823758554688255,
                "97": -0.009100089172323265,
                "98": 0.004915063444426674,
                "99": -0.011220490189876434,
                "100": 0.00491394816328794,
                "101": 0.00656164602446803,
                "102": 0.014689744790167958,
                "103": -0.0121549165743217,
                "104": 0.013629190443986396,
                "105": 0.013720074021875998,
                "106": 0.004046162173035922,
                "107": -0.010890974997238114,
                "108": -0.0034853039234993975,
                "109": -0.01513549704636271,
                "110": 0.0006398398747636323,
                "111": 0.011656828906079334,
                "112": 0.01681612882752102,
                "113": -0.003450319814292289,
                "114": 0.010407286485018274,
                "115": 0.00904458082793623,
                "116": -0.008276604963995628,
                "117": -0.007193784728966897,
                "118": 0.021939503419277362,
                "119": -0.008676260449167679,
                "120": -0.01269898850432693,
                "121": 0.0034927808885007803,
                "122": 0.021257446072903356,
                "123": 0.003097814282005026,
                "124": 0.024024999934017945,
                "125": 0.0007046388625027214,
                "126": -0.0030093891279563156,
                "127": -0.0025457615068341126,
                "128": 0.013991951261244943,
                "129": -0.008535469198641576,
                "130": -0.0008698822761241201,
                "131": 0.0011595438535284594,
                "132": -0.0013121242959283261,
                "133": 0.00024012581235603386,
                "134": -0.003597155299117452,
                "135": -0.008100674117203902,
                "136": 0.002038108976661288,
                "137": 0.0035970180204800105,
                "138": -0.004176214099143078,
                "139": -0.01798237451591466,
                "140": -0.017621151315301467,
                "141": 0.007858426423835352,
                "142": -0.010611008205625917,
                "143": -0.0045039175644900325,
                "144": -0.0018347101240497104,
                "145": -0.0067839024456678824,
                "146": 0.006774157216010812,
                "147": -0.00871405872507411,
                "148": -0.01191775877962643,
                "149": -0.002283801617434814,
                "150": 0.004911715800631233,
                "151": 0.011386856701486415,
                "152": 0.000036488665205252955,
                "153": 0.007097556825947499,
                "154": -0.008462536288080481,
                "155": 0.004252354225319186,
                "156": -0.001010430383913043,
                "157": 0.007253201119952372,
                "158": -0.003720773900010004,
                "159": -0.002965127294010041,
                "160": 0.01986148847290917,
                "161": 0.0026013417670645938,
                "162": -0.011876587715586591,
                "163": 0.00919720427774654,
                "164": 0.004744689422963239,
                "165": -0.005143285013729186,
                "166": -0.005798730092115279,
                "167": -0.01210257157344103
            }
        },
        "b2": {
            "n": 24,
            "d": 1,
            "w": {
                "0": 0.12446291936425562,
                "1": 0.11149083620551319,
                "2": 0.11463797233273584,
                "3": 0.11275091232746037,
                "4": 0.12316781669678126,
                "5": 0.1207934029428747,
                "6": 0.11696750821300608,
                "7": 0.11192020001748183,
                "8": 0.12494354432839999,
                "9": 0.12589969514206426,
                "10": 0.11390686148973121,
                "11": 0.11162170356421003,
                "12": 0.12022960704926715,
                "13": 0.116828254542548,
                "14": 0.1311106993101603,
                "15": 0.11363939306281792,
                "16": 0.11156842586062597,
                "17": 0.11965391258909142,
                "18": 0.12205960798786208,
                "19": 0.12271793650851708,
                "20": 0.11974479668955251,
                "21": 0.11581052981945426,
                "22": 0.13087234598892808,
                "23": 0.11192772406543254
            }
        }
    }
}