{
    "nh1": 20,
    "ns": 8,
    "na": 8,
    "net": {
        "W1": {
            "n": 20,
            "d": 8,
            "w": {
                "0": 0.008796992126224219,
                "1": 0.10170218432385045,
                "2": 0.027988034485310894,
                "3": -0.02571075277686514,
                "4": -0.002923511494446253,
                "5": -0.037899524991757076,
                "6": -0.04631725612942897,
                "7": 0.05938946100302906,
                "8": -0.037587304266810055,
                "9": -0.06282006817831513,
                "10": -0.18597792125229415,
                "11": -0.13172790735738305,
                "12": 0.08026926305254461,
                "13": -0.0820144207077039,
                "14": -0.08285276471591657,
                "15": 0.11462342936550798,
                "16": 0.016490967433096988,
                "17": 0.039975881764810074,
                "18": -0.3002734900161259,
                "19": -0.15940454161497078,
                "20": 0.15862409319403084,
                "21": -0.11779704966349042,
                "22": -0.07252819354936564,
                "23": -0.0876981520688613,
                "24": -0.004287880227559855,
                "25": 0.05263607077008637,
                "26": -0.05937631604717259,
                "27": -0.02676171212255033,
                "28": -0.10052046923322909,
                "29": 0.010620347228232005,
                "30": -0.10095447745240539,
                "31": -0.13268610888884985,
                "32": -0.06540322086437324,
                "33": -0.023029576354465377,
                "34": 0.10356872398017218,
                "35": -0.10202974174172688,
                "36": -0.11007157511964324,
                "37": 0.010321398830293984,
                "38": -0.01007186615598438,
                "39": 0.05583709549492143,
                "40": -0.04637367886091438,
                "41": 0.022464798449381183,
                "42": 0.10925188902777608,
                "43": 0.16750633934263245,
                "44": 0.10131301290739295,
                "45": 0.12809167507646127,
                "46": -0.09387856890525473,
                "47": -0.031560873165582565,
                "48": 0.0393901070938505,
                "49": -0.1628841903016907,
                "50": 0.003478600221689929,
                "51": 0.1704266901113337,
                "52": 0.17915239682110362,
                "53": 0.18043626927590184,
                "54": -0.02589735842176608,
                "55": 0.030336222429029412,
                "56": 0.02011470159993627,
                "57": 0.013416334704931244,
                "58": -0.00826370751277204,
                "59": 0.005267567977939077,
                "60": -0.0744217440943261,
                "61": 0.026347735849748626,
                "62": 0.03167447817680466,
                "63": -0.0016521364809862185,
                "64": 0.0062428711060421955,
                "65": -0.015319096290035103,
                "66": -0.1175113186822379,
                "67": -0.0740015094411182,
                "68": 0.02549524002064353,
                "69": 0.05126190918103356,
                "70": 0.04200724048322132,
                "71": -0.05857683720433715,
                "72": 0.07013888763675383,
                "73": 0.01159504828074627,
                "74": 0.3975711299760699,
                "75": 0.32193931197603165,
                "76": 0.09189479722755353,
                "77": -0.03429374995922324,
                "78": -0.0019784463299489397,
                "79": 0.07004410215862938,
                "80": 0.03480368287095981,
                "81": 0.08391155895568661,
                "82": 0.020742948893788995,
                "83": 0.1841753656114999,
                "84": 0.09039927365081685,
                "85": 0.033423438066390566,
                "86": 0.1258960745795617,
                "87": -0.004507350594542537,
                "88": 0.0172231945624007,
                "89": 0.017973090742399233,
                "90": -0.23367097377074475,
                "91": -0.1352583230017058,
                "92": 0.013539165201020078,
                "93": 0.008300122566502538,
                "94": -0.08506699271542302,
                "95": -0.1990513057942514,
                "96": -0.01678829436111035,
                "97": 0.007218596467745716,
                "98": -0.01714401406385684,
                "99": -0.11088364458797931,
                "100": -0.01751119517928347,
                "101": -0.020191546496439047,
                "102": -0.12457702421140471,
                "103": 0.022251105918652304,
                "104": 0.085353409035268,
                "105": 0.07759443355257056,
                "106": 0.11317894209647736,
                "107": -0.022871236050845005,
                "108": -0.05567470215801594,
                "109": -0.05176159863305677,
                "110": 0.02453197644876099,
                "111": 0.04655974426036617,
                "112": 0.015759269462670825,
                "113": -0.026074568234013103,
                "114": -0.20713331658625636,
                "115": 0.005870941335443934,
                "116": 0.0981167793747557,
                "117": -0.002484152272899254,
                "118": 0.07713702803612113,
                "119": 0.014451177932899122,
                "120": -0.07535243078525149,
                "121": -0.00024088464634959716,
                "122": -0.011664623677878261,
                "123": 0.010658897471692302,
                "124": -0.03619029981795539,
                "125": -0.16508358353476402,
                "126": -0.04916344360121153,
                "127": -0.05479448700143047,
                "128": -0.003283792965113012,
                "129": 0.02175181455778575,
                "130": -0.11893543762605922,
                "131": -0.09129689043666003,
                "132": -0.11478366506665184,
                "133": -0.14103306570259824,
                "134": -0.1809959050359966,
                "135": 0.01141851930150428,
                "136": -0.13287990925006402,
                "137": -0.04833799543482999,
                "138": -0.10556768033134056,
                "139": 0.026090133359257056,
                "140": 0.00513547604886719,
                "141": 0.0026639479704907,
                "142": 0.18712627836744372,
                "143": -0.07159476918058993,
                "144": 0.010245808759247606,
                "145": -0.023331409033436133,
                "146": 0.12807530548856427,
                "147": 0.08177328321428451,
                "148": 0.23586337799680354,
                "149": 0.1797337297958433,
                "150": 0.2978384033227683,
                "151": 0.2500022543388533,
                "152": -0.03223765469558544,
                "153": 0.11826308791227363,
                "154": 0.013765438335226561,
                "155": 0.010077483809371481,
                "156": 0.031215269555187997,
                "157": 0.13773379954882686,
                "158": 0.06678682237717183,
                "159": 0.038101489808238014
            }
        },
        "b1": {
            "n": 20,
            "d": 1,
            "w": {
                "0": -0.02457336290800776,
                "1": 0.08939987381561335,
                "2": 0.1206967432679591,
                "3": 0.10355068217532544,
                "4": 0.046129070756734544,
                "5": -0.07126809599289294,
                "6": -0.11020040826017591,
                "7": -0.011835882122043588,
                "8": 0.024022416448154452,
                "9": -0.2648982038838459,
                "10": -0.17019766536159808,
                "11": 0.1603555953449317,
                "12": 0.07807750222466604,
                "13": -0.06401964678195864,
                "14": -0.018864646324169388,
                "15": 0.12844644297966887,
                "16": 0.17650396345575892,
                "17": 0.03989353111585446,
                "18": -0.3788151089481035,
                "19": -0.11670792446881913
            }
        },
        "W4": {
            "n": 8,
            "d": 20,
            "w": {
                "0": 0.017439252154301074,
                "1": 0.022775338600398473,
                "2": 0.016726977487325722,
                "3": 0.04145103275388314,
                "4": 0.04942717196388809,
                "5": -0.13486328881196544,
                "6": -0.17744506063548882,
                "7": 0.027187809878310848,
                "8": -0.0035120453461468916,
                "9": -0.13171887642168753,
                "10": -0.07135249129034482,
                "11": 0.028965143067147734,
                "12": 0.023559146523413815,
                "13": 0.04390532654249583,
                "14": -0.01831193824392572,
                "15": 0.06518795328050499,
                "16": 0.11237612664601737,
                "17": 0.011998182219979349,
                "18": -0.182010444813903,
                "19": -0.053205996840888795,
                "20": -0.022109103610871688,
                "21": 0.022166939656321674,
                "22": 0.017012718801264672,
                "23": 0.052863000841691835,
                "24": 0.04849044578148085,
                "25": -0.07825128590581833,
                "26": -0.04900059466125378,
                "27": 0.020012056174510743,
                "28": 0.03172027496393876,
                "29": -0.16606999743854045,
                "30": -0.10985441980186648,
                "31": 0.08083229955898476,
                "32": 0.04136753075281571,
                "33": 0.001045677852373034,
                "34": -0.020131998719964836,
                "35": -0.0029707709963265752,
                "36": 0.07234736170597027,
                "37": -0.019799183424283016,
                "38": -0.1896077458594201,
                "39": -0.04869582045879393,
                "40": -0.004568805994499428,
                "41": 0.09523484062136232,
                "42": 0.11780808826857743,
                "43": 0.018815385974072823,
                "44": -0.005075505327558437,
                "45": -0.06364334566535612,
                "46": -0.044691860121581585,
                "47": -0.004271657444961143,
                "48": 0.02922256196225268,
                "49": -0.16453475324762876,
                "50": -0.047665754362364456,
                "51": 0.07659998575898284,
                "52": 0.02621535620246297,
                "53": -0.03863048795571669,
                "54": 0.05455505570422852,
                "55": 0.041049658956836946,
                "56": 0.07691891613543096,
                "57": 0.04225151747299369,
                "58": -0.09558852254100343,
                "59": -0.0320618128424324,
                "60": -0.03611253915572434,
                "61": 0.07622858817165194,
                "62": 0.053559494035036875,
                "63": 0.021720962845369528,
                "64": 0.04162790357165016,
                "65": -0.029422561733088434,
                "66": -0.003357824546260204,
                "67": -0.020048743742553988,
                "68": 0.01664186483939161,
                "69": -0.11572516955625715,
                "70": -0.11020301600619972,
                "71": 0.06192484144145559,
                "72": 0.0467688554868567,
                "73": -0.056592371107643674,
                "74": -0.00790370528369097,
                "75": 0.054665457175160706,
                "76": 0.06376992792231963,
                "77": 0.027705879963686005,
                "78": -0.15096193534493046,
                "79": -0.07790819255913989,
                "80": -0.02628648251332631,
                "81": 0.025824893578217278,
                "82": 0.02990311126853524,
                "83": 0.05599932578676119,
                "84": 0.061419184818983716,
                "85": -0.012934210181330844,
                "86": -0.06489246437399628,
                "87": -0.006171224588670383,
                "88": 0.017351159992960403,
                "89": -0.13437857251260873,
                "90": -0.0954193492854454,
                "91": 0.07518638034785109,
                "92": 0.037234699233984106,
                "93": -0.058957777007968906,
                "94": -0.02975414573746848,
                "95": 0.07190237625689003,
                "96": 0.05685562092384689,
                "97": 0.07737093884947975,
                "98": -0.16810639601405616,
                "99": -0.033954795297085776,
                "100": -0.0522945940058347,
                "101": -0.0037693109780008813,
                "102": 0.04152236770617776,
                "103": 0.0869935471367353,
                "104": -0.014233759192159991,
                "105": -0.020205911189764784,
                "106": -0.009921893372070282,
                "107": 0.012079545248018428,
                "108": 0.02533788790361237,
                "109": -0.10199526841224353,
                "110": -0.05241649439364794,
                "111": 0.11075761716949258,
                "112": 0.004754177878782037,
                "113": -0.05822112238976269,
                "114": 0.009555437746667455,
                "115": 0.06312127017360228,
                "116": 0.07533991923430888,
                "117": 0.04918908855707296,
                "118": -0.21256630180493463,
                "119": -0.08148059084889324,
                "120": 0.013907683062853442,
                "121": 0.03992710582744823,
                "122": 0.16513269132036731,
                "123": 0.07639641810131564,
                "124": -0.03366203876034303,
                "125": -0.01000549803534919,
                "126": -0.06803636600595173,
                "127": -0.029265315755119547,
                "128": 0.022256317477468555,
                "129": -0.07289533964976035,
                "130": -0.054993583125581474,
                "131": 0.14751116204356224,
                "132": 0.05387576896667886,
                "133": -0.00815084198155195,
                "134": -0.007844609901781813,
                "135": 0.06613832222904589,
                "136": 0.08471336761957071,
                "137": -0.043115955882393836,
                "138": -0.1857627325191313,
                "139": -0.05653960042077789,
                "140": 0.020722368100398104,
                "141": 0.05558772009865051,
                "142": 0.05348093219512097,
                "143": 0.07318495841084112,
                "144": 0.03180968963391434,
                "145": -0.023361555254080187,
                "146": -0.0838824014759406,
                "147": 0.0030045141867170557,
                "148": -0.0032963311337871784,
                "149": -0.12067373113336363,
                "150": -0.08489427393257161,
                "151": 0.06881254228580241,
                "152": 0.061021246165482386,
                "153": -0.02042315935067428,
                "154": -0.02198870534720051,
                "155": 0.05950333775545179,
                "156": 0.12780841886766628,
                "157": -0.020282711598434706,
                "158": -0.20687633688381354,
                "159": -0.032807953797244764
            }
        },
        "b4": {
            "n": 8,
            "d": 1,
            "w": {
                "0": 0.6365977733398975,
                "1": 0.59310596981697,
                "2": 0.5836719246708031,
                "3": 0.5716320909232997,
                "4": 0.5874215901058689,
                "5": 0.5960734091765516,
                "6": 0.6139846207864034,
                "7": 0.634729487371191
            }
        }
    }
}